
\data\
ngram 1=5739
ngram 2=28373
ngram 3=4375

\1-grams:
-2.825289	!	-1.300363
-3.264697	%	-0.4584337
-2.605182	'	-0.6353939
-2.942033	''	-0.1782096
-3.083237	's	-0.1172283
-3.434854	(	-0.1317835
-3.358629	)	-0.05144423
-1.421729	,	-0.4039829
-2.375812	-	-0.1925735
-1.447543	.	-2.184434
-3.91832	...	-0.2720428
-4.458794	000	-0.1001782
-3.478651	1	-0.1116209
-4.882486	1.4	-0.1003378
-4.0683	10	-0.06410314
-4.882486	100	-0.1002605
-4.882486	11	-0.08868667
-3.80705	12	-0.0869202
-4.882486	120	-0.1001226
-4.882486	123	-0.09975494
-4.458794	14	-0.09973311
-4.882486	143	-0.1002605
-3.80705	15	-0.1232633
-4.458794	18	-0.09014668
-4.299271	19	-0.1000704
-4.882486	193	-0.08357822
-4.882486	1957	-0.08456346
-4.882486	1967	-0.08357822
-4.882486	1989	-0.08357822
-4.882486	1990	-0.08456346
-4.882486	1991	-0.08357822
-4.882486	1992	-0.08789982
-4.299271	1993	-0.07280494
-4.458794	1994	-0.06923502
-4.882486	1995	-0.1000001
-4.0683	1996	-0.10759
-4.0683	1997	-0.09994778
-3.582243	1998	-0.1526406
-3.478651	1999	-0.1574488
-3.91832	2	-0.1331083
-4.882486	2.8	-0.1003217
-4.458794	20	-0.1000404
-3.91832	2000	-0.07691444
-4.882486	2000-2006	-0.1000154
-4.882486	2001	-0.08357822
-4.882486	2002	-0.09027181
-4.882486	20th	-0.1003064
-4.458794	21	-0.09630819
-4.882486	21st	-0.1003378
-4.882486	24	-0.09990819
-4.299271	25	-0.1720686
-4.882486	250	-0.1001226
-4.882486	26	-0.1001073
-4.882486	262	-0.1003064
-4.458794	27	-0.09985591
-4.458794	28	-0.1000922
-4.882486	280	-0.08868667
-4.458794	3	-0.09991702
-4.882486	3-litre	-0.1001839
-4.882486	3.8	-0.1001226
-4.458794	30	-0.2154586
-4.882486	34	-0.09016214
-4.458794	35	-0.09999362
-4.882486	350	-0.08357822
-4.882486	37	-0.1003217
-4.458794	4	-0.08847556
-4.458794	40	-0.09980975
-4.458794	400	-0.1001008
-4.882486	410	-0.1003217
-4.882486	47	-0.1001073
-4.0683	5	-0.09809895
-4.882486	5.8	-0.1001226
-4.882486	5/4	-0.09874216
-4.299271	50	-0.0882171
-4.882486	500	-0.1003217
-4.882486	540	-0.1001226
-4.882486	55	-0.1001839
-4.882486	5b	-0.1002605
-4.882486	6	-0.08868667
-4.882486	6.07	-0.1001226
-4.882486	7	-0.08868667
-4.882486	7.2	-0.1001226
-4.882486	7.6	-0.1001073
-4.882486	70	-0.09975494
-4.299271	700	-0.06868593
-4.882486	75	-0.1001226
-4.299271	80	-0.3288626
-4.458794	81	-0.08773559
-4.882486	82	-0.08867117
-4.882486	83	-0.1002451
-4.882486	87	-0.1001839
-4.882486	88	-0.08357822
-4.0683	9	-0.08737539
-4.882486	90	-0.1002451
-4.882486	93	-0.09975494
-4.458794	94	-0.08333277
-4.882486	94/55/EC	-0.09832715
-4.882486	97	-0.08456346
-4.882486	99	-0.1001073
-2.825289	:	-0.1338232
-2.650649	;	-0.2342267
-3.32501	</s>
-99	<s>	-0.849318
-0.7044144	<unk>
-2.59302	?	-1.397096
-4.882486	A	-0.09831791
-4.882486	ADAPT	-0.08789982
-4.458794	AIDS	-0.1632511
-4.299271	ALTENER	-0.1518439
-4.882486	According	-0.09016214
-4.882486	Accordingly	-0.08357822
-4.458794	Action	-0.2157503
-4.882486	Adana	-0.08456346
-4.882486	Adriatic	-0.09790604
-3.91832	Affairs	-0.0981281
-4.458794	Africa	-0.08404256
-4.882486	After	-0.09955564
-4.882486	Again	-0.08357822
-4.458794	Agency	-0.08146635
-4.458794	Agreement	-0.08039393
-4.882486	Ahern	-0.08357822
-4.882486	Aids	-0.1003378
-4.882486	Akkuyu	-0.08357822
-4.882486	Albanian	-0.1003378
-4.0683	Albanians	-0.05294342
-4.882486	Alexander	-0.1003378
-4.882486	Alicante	-0.09886505
-4.882486	All	-0.07826207
-4.882486	Allow	-0.1000614
-4.882486	Alongside	-0.09149202
-4.882486	Alsace	-0.09780399
-4.882486	Also	-0.09149202
-4.882486	Although	-0.09793832
-4.0683	Amendment	-0.4540224
-4.882486	Amendments	-0.1003378
-4.458794	America	-0.07946341
-4.882486	American	-0.1003284
-4.882486	Americans	-0.09998479
-3.80705	Amsterdam	-0.09403822
-4.882486	An	-0.09987105
-4.882486	And	-0.06839608
-4.882486	Anglo/French	-0.1003284
-4.882486	Another	-0.09646244
-4.882486	Any	-0.1001468
-4.882486	Anyone	-0.08283923
-4.882486	Apart	-0.0986346
-4.882486	April	-0.08456346
-4.882486	Are	-0.09944829
-4.882486	Ariane	-0.08789982
-3.91832	Article	-0.1000299
-4.882486	Articles	-0.1003284
-4.882486	As	-0.04089716
-3.91832	Asia	-0.1531811
-4.299271	Asian	-0.08788809
-4.882486	At	-0.0863649
-4.882486	Atlantic	-0.08455756
-4.458794	Atomic	-0.1003133
-4.458794	Audit	-0.2157503
-4.882486	Auditors	-0.07296799
-3.32501	Austria	-0.104047
-3.645072	Austrian	-0.1177233
-4.458794	Austrians	-0.0810665
-4.299271	Authority	-0.1080587
-4.882486	BP	-0.08357822
-4.299271	BSE	-0.07747661
-4.882486	BTF	-0.1003284
-4.458794	Balkan	-0.2157503
-4.882486	Balkans	-0.07589946
-4.882486	Bank	-0.1000308
-4.882486	Barak	-0.09831177
-4.882486	Barents	-0.1003284
-4.882486	Barnhill	-0.09632342
-4.458794	Barnier	-0.07063742
-4.882486	Barón	-0.1003378
-4.882486	Because	-0.09960164
-4.882486	Before	-0.1003064
-4.882486	Berger	-0.1002605
-4.882486	Berlin	-0.1003064
-4.458794	Bertinotti	-0.09951847
-4.882486	Between	-0.1002298
-4.882486	Beyond	-0.09791175
-4.882486	Bio-Safety	-0.1003284
-4.882486	Black	-0.1003378
-4.882486	Board	-0.09829661
-4.458794	Bolkestein	-0.1558969
-4.458794	Bosnians	-0.08204149
-4.882486	Both	-0.08703738
-4.882486	Bourlanges	-0.09981625
-4.882486	Bowe	-0.08357822
-4.882486	Bowis	-0.09852702
-4.882486	Brandenburg	-0.08357822
-4.882486	Breyer	-0.0992335
-4.882486	Briefly	-0.08357822
-4.0683	Britain	-0.1592275
-3.527366	British	-0.1139949
-4.458794	Brittany	-0.08501919
-4.882486	Brok	-0.08323725
-3.91832	Brussels	-0.09624038
-4.882486	Buddhist	-0.1003378
-4.882486	Budgetary	-0.1003378
-4.458794	Budgets	-0.09935856
-4.882486	Bulgaria	-0.08456346
-4.882486	But	-0.05530861
-4.882486	By	-0.1002298
-4.882486	Byrne	-0.07063742
-4.882486	Bösch	-0.1000001
-4.882486	CEN	-0.06947549
-4.882486	CFSP	-0.0998469
-4.458794	CO2	-0.08780767
-4.458794	CSU	-0.1572346
-4.882486	Cabinet	-0.08357822
-4.882486	Calls	-0.09542646
-4.882486	Camre	-0.09981625
-4.882486	Can	-0.09903396
-4.882486	Canyon	-0.09027181
-4.882486	Car	-0.1002298
-4.882486	Care	-0.09915676
-4.882486	Caspian	-0.1003284
-4.882486	Catch-22	-0.1001533
-4.882486	Caucasus	-0.09780399
-4.458794	Central	-0.1002693
-4.882486	Century	-0.08456346
-4.882486	Ceyhun	-0.09852702
-4.458794	Chamber	-0.08962203
-4.882486	Chancellor	-0.1003378
-4.882486	Change	-0.09027181
-4.882486	Changes	-0.09016214
-4.882486	Charges	-0.1002298
-4.458794	Charter	-0.1459097
-3.91832	China	-0.1810838
-4.882486	Chinese	-0.08594461
-4.882486	Chirac	-0.09852702
-4.458794	Christian	-0.1003133
-4.882486	Christmas	-0.1003217
-4.458794	Citizens	-0.08757798
-4.882486	Clearly	-0.09149202
-4.882486	Clinton	-0.09998479
-4.882486	Coast	-0.09016214
-4.882486	Coca	-0.1003378
-4.458794	Cohesion	-0.1002913
-4.882486	Cola	-0.08357822
-4.882486	Cologne	-0.1002298
-3.083237	Commission	-0.01733738
-3.142756	Commissioner	-0.1449054
-3.91832	Commissioners	-0.0834085
-3.718553	Committee	-0.1423966
-4.882486	Commons	-0.09791175
-4.882486	Communist	-0.1002758
-4.882486	Communities	-0.08456346
-3.237416	Community	-0.1180692
-4.458794	Competition	-0.08660886
-4.882486	Compromise	-0.1003378
-4.882486	Computer-controlled	-0.1003378
-4.882486	Confederal	-0.1002145
-4.458794	Conference	-0.06072884
-4.882486	Consequently	-0.08357822
-4.299271	Conservative	-0.08779881
-4.458794	Conservatives	-0.06899777
-4.882486	Considering	-0.09418621
-4.882486	Constabulary	-0.08789982
-4.882486	Constitution	-0.08456346
-4.882486	Constitutional	-0.1002911
-4.882486	Consumer	-0.1003284
-4.882486	Control	-0.06789407
-4.882486	Controller	-0.07054849
-4.299271	Convention	-0.06735644
-4.882486	Corpus	-0.1003284
-4.458794	Costa	-0.1350234
-4.882486	Could	-0.09944829
-3.434854	Council	-0.01067919
-4.882486	Countries	-0.09418621
-4.458794	Court	-0.1236954
-4.882486	Cox	-0.1000001
-4.882486	Crespo	-0.09998479
-4.882486	Cultural	-0.1000702
-3.91832	Culture	-0.2177646
-4.882486	Current	-0.1000308
-4.882486	Currently	-0.08357822
-4.458794	Cuxhaven	-0.08167413
-4.882486	DE	-0.1001533
-4.882486	DGs	-0.09915676
-4.882486	Da	-0.1003284
-4.458794	Dalai	-0.2157503
-4.882486	Danish	-0.1003064
-4.299271	David	-0.1737726
-4.882486	Day	-0.09937159
-4.882486	De	-0.1003217
-4.882486	Decades	-0.09831177
-4.458794	December	-0.09414858
-4.882486	Decision	-0.08868667
-4.882486	Decisions	-0.09470718
-4.882486	Declaration	-0.08789982
-4.882486	Delays	-0.09027181
-4.882486	Delegation	-0.09016214
-4.882486	Democracy	-0.08357822
-4.458794	Democratic	-0.10023
-4.458794	Democrats	-0.09666549
-4.458794	Denmark	-0.06282441
-4.882486	Denouncing	-0.09694093
-4.882486	Deploying	-0.09149202
-4.882486	Deutsche	-0.1003378
-4.458794	Development	-0.09999362
-4.882486	Dimitrakopoulos	-0.1003378
-4.299271	Directive	-0.08038795
-4.882486	Director-General	-0.08357822
-4.882486	Directorate-General	-0.08357822
-4.458794	Directorates-General	-0.06716524
-4.882486	Directors-General	-0.09792715
-4.882486	Do	-0.09938693
-4.882486	Does	-0.09149202
-4.882486	Dropping	-0.09149202
-4.882486	Dublin	-0.08789982
-4.882486	During	-0.09078184
-4.882486	E.coli-infected	-0.1002758
-3.91832	EC	-0.07336154
-4.882486	ECB	-0.08789982
-4.882486	ECHO	-0.08357822
-4.882486	ECSC	-0.1002605
-4.882486	EDD	-0.08344418
-4.882486	EEA	-0.09027181
-4.882486	EEC	-0.09016214
-4.882486	EIB	-0.08357822
-4.882486	ELDR	-0.1002145
-4.882486	EMPLOYMENT	-0.08789982
-4.882486	EPP	-0.08053814
-4.882486	EPP-ED	-0.1002758
-3.91832	EQUAL	-0.1309109
-3.102184	EU	-0.0546217
-4.882486	EU-wide	-0.1001686
-3.582243	EUR	-0.1002553
-4.458794	EURODAC	-0.07964927
-4.882486	EXPLANATIONS	-0.1003378
-4.299271	East	-0.05267278
-4.882486	Ecemis	-0.1003284
-4.299271	Economic	-0.1609712
-4.882486	Egypt	-0.08789982
-4.882486	Elles	-0.07966533
-4.882486	Emphasis	-0.09915676
-4.882486	Employment	-0.08789982
-4.882486	End-of-life	-0.1003378
-4.458794	Energy	-0.08355556
-4.882486	English	-0.09886505
-4.882486	Environment	-0.08350784
-4.882486	Equal	-0.1003378
-4.882486	Equally	-0.08221707
-4.0683	Erika	-0.08204389
-4.882486	Erika-type	-0.1002298
-4.882486	Erikas	-0.09969363
-4.882486	Eritrea	-0.08789982
-4.458794	Erkki	-0.2157503
-4.882486	Essentially	-0.09851164
-4.458794	Ethiopia	-0.08466108
-4.299271	Eurodac	-0.07904805
-4.458794	Eurojust	-0.08053814
-2.955638	Europe	-0.1771392
-4.882486	Europe-wide	-0.1002911
-2.767841	European	-0.1760012
-4.458794	Europeans	-0.06716524
-3.80705	Europol	-0.06727885
-4.882486	Eurosceptics	-0.1001073
-4.882486	Evans	-0.08357822
-4.882486	Even	-0.08734384
-4.882486	Events	-0.09972429
-4.882486	Every	-0.1002451
-4.882486	Everyone	-0.09912606
-4.882486	Existing	-0.1000001
-4.882486	Expansion	-0.08868667
-4.458794	Experts	-0.08599275
-4.882486	External	-0.1003284
-4.882486	FEO	-0.09646244
-4.458794	FPÖ	-0.1113238
-3.91832	February	-0.1950861
-4.882486	Federal	-0.1003217
-4.882486	Finally	-0.08357822
-4.0683	Financial	-0.1351156
-4.882486	Finland	-0.08357822
-4.458794	Finnish	-0.1001047
-4.458794	First	-0.07074539
-4.882486	Firstly	-0.0826637
-4.882486	Fischler	-0.05616526
-4.882486	Flautre	-0.08288684
-4.299271	Florenz	-0.1126083
-4.882486	Florian	-0.1001992
-4.458794	Food	-0.1002454
-4.882486	For	-0.06928482
-4.882486	Force	-0.08368282
-4.882486	Ford	-0.08789982
-4.299271	Foreign	-0.1737011
-4.882486	Forest	-0.1003378
-4.882486	Forestier	-0.08357822
-4.882486	Forty	-0.1000461
-4.882486	Fourthly	-0.08357822
-4.882486	Framework	-0.100138
-3.718553	France	-0.07709157
-4.299271	Franz	-0.3290931
-4.882486	Frau	-0.1003378
-4.458794	Freedom	-0.2156883
-4.882486	Freedoms	-0.08789982
-4.458794	French	-0.0987234
-4.882486	Frequent	-0.1002605
-4.458794	Friday	-0.07246926
-4.882486	From	-0.09527395
-4.0683	Fund	-0.05155138
-4.882486	Fundamental	-0.1003064
-4.458794	Funds	-0.1175739
-4.882486	Further	-0.1002298
-4.882486	Furthermore	-0.08357822
-4.882486	G7	-0.1000308
-4.882486	GDP	-0.08357822
-4.882486	General	-0.08789982
-4.882486	Geneva	-0.1003217
-4.882486	Genuine	-0.1002911
-3.91832	German	-0.09888266
-3.91832	Germany	-0.1789307
-4.882486	God	-0.08357822
-4.882486	God-given	-0.1002758
-4.882486	Golan	-0.1003378
-4.882486	Gomes	-0.08357822
-4.882486	Goodwill	-0.100138
-3.718553	Government	-0.0988353
-4.882486	Graça	-0.1003378
-4.458794	Great	-0.2157189
-4.882486	Greater	-0.1001839
-4.882486	Greece	-0.08456346
-4.882486	Greek	-0.0997856
-4.882486	Green	-0.1003378
-4.882486	Grossetête	-0.08789982
-3.527366	Group	-0.08217844
-4.882486	Grönitz	-0.1003064
-4.882486	Gulf	-0.1003007
-4.882486	Haarder	-0.09418621
-4.882486	Hague	-0.08357822
-3.527366	Haider	-0.1624406
-4.882486	Have	-0.09944829
-4.882486	Having	-0.100276
-4.458794	He	-0.09502188
-4.882486	Heads	-0.08868667
-4.458794	Health	-0.2033124
-4.882486	Heaton-Harris	-0.1001839
-4.882486	Heights	-0.09588408
-4.882486	Helsinki	-0.1002298
-4.882486	Hence	-0.09059402
-4.882486	Henry	-0.1003378
-4.882486	Here	-0.08129966
-3.91832	Herr	-0.2226474
-4.458794	High	-0.1000251
-4.882486	Hilton	-0.08357822
-4.882486	Hitler	-0.1003227
-4.882486	Holiness	-0.08357822
-4.882486	Hollywood	-0.1003378
-4.882486	Home	-0.1002911
-4.299271	House	-0.004513562
-4.882486	How	-0.07777865
-4.882486	However	-0.08221707
-4.882486	Hulten	-0.0502257
-4.882486	Human	-0.1003064
-4.882486	Humanitarian	-0.1003284
-4.882486	Hurricane	-0.1000308
-2.521323	I	-0.3258611
-4.299271	IGC	-0.0314323
-4.299271	II	-0.07109943
-4.882486	INTERREG	-0.08357822
-4.882486	IRA	-0.1003217
-4.882486	If	-0.07984477
-4.882486	Illegal	-0.09995415
-4.882486	Imbeni	-0.09542646
-4.882486	Imprisonment	-0.08357822
-4.882486	In	-0.08310381
-4.882486	Indeed	-0.06460884
-4.458794	Independent	-0.100276
-4.458794	Indonesia	-0.07310532
-4.458794	Industry	-0.1569324
-4.882486	Inspectorate	-0.1003378
-4.458794	Instance	-0.01938499
-4.882486	Instead	-0.08868667
-4.458794	Institutions	-0.08192971
-4.882486	Interests	-0.08357822
-4.299271	Intergovernmental	-0.3290837
-4.882486	Internal	-0.1003378
-4.882486	International	-0.1003227
-4.882486	Involve	-0.09970896
-3.91832	Ireland	-0.05037816
-4.882486	Irish	-0.100138
-4.882486	Irrespective	-0.08868667
-4.882486	Is	-0.08935559
-4.882486	Isabel	-0.1003378
-4.882486	Islands	-0.09632342
-4.299271	Israel	-0.068033
-4.882486	Israel/Syria	-0.09990819
-4.882486	Israeli	-0.1002548
-4.882486	Istanbul	-0.1003064
-4.299271	It	-0.1148071
-4.299271	Italian	-0.1001843
-4.882486	Italy	-0.09886505
-4.882486	Jackson	-0.09358926
-4.458794	January	-0.100254
-4.0683	Japan	-0.1137275
-4.882486	Jewish	-0.1003217
-4.458794	Jonckheer	-0.07662065
-4.882486	Journal	-0.08868667
-4.458794	July	-0.1001935
-4.0683	June	-0.120626
-4.882486	Just	-0.09944829
-4.299271	Justice	-0.0646243
-4.882486	Jörg	-0.1002145
-4.882486	Kaleidoscope	-0.08357822
-4.882486	Karas	-0.09832063
-4.882486	Karl	-0.1003217
-4.882486	Kazakhstan	-0.08357822
-4.882486	Keep	-0.09791175
-4.882486	Ken	-0.1003378
-4.882486	Key	-0.1000001
-4.882486	Kingdom	-0.05938784
-4.458794	Kinnock	-0.05926841
-4.882486	Koch	-0.07932808
-4.458794	Korea	-0.08783013
-4.882486	Kosovan	-0.1003217
-3.645072	Kosovo	-0.06832269
-4.882486	Kumar	-0.1003378
-4.458794	Kyoto	-0.08422346
-4.0683	Kyrgyzstan	-0.1076019
-4.882486	LEADER	-0.08789982
-4.882486	Laan	-0.09890461
-4.458794	Labour	-0.1001927
-4.882486	Lama	-0.08057259
-4.882486	Lamy	-0.1000001
-4.882486	Landis	-0.1003378
-4.299271	Lange	-0.07683076
-4.882486	Langen	-0.07926381
-4.882486	Langenhagen	-0.09418621
-4.882486	Lanka	-0.07074517
-4.882486	Lankan	-0.1001992
-4.882486	Large	-0.1002911
-4.458794	Last	-0.09915066
-4.882486	Lastly	-0.08357822
-4.882486	Latin	-0.1003227
-4.882486	Left	-0.09646244
-4.882486	Left/Nordic	-0.1003378
-4.299271	Legal	-0.1737259
-4.882486	Leinen	-0.1003378
-4.882486	Leinster	-0.08357822
-4.882486	Less	-0.09646244
-4.882486	Let	-0.0984371
-4.882486	Liikanen	-0.07165243
-4.882486	Likewise	-0.08357822
-4.882486	Lisbon	-0.1000308
-4.882486	Lithuania	-0.08357822
-4.882486	Lloyds	-0.08868667
-4.458794	London	-0.1989908
-4.882486	Looking	-0.09016214
-4.882486	Lothar	-0.0998469
-4.882486	Luxembourg	-0.08357822
-4.882486	Lynne	-0.09996298
-4.458794	MEP	-0.08779881
-3.718553	MEPs	-0.1353877
-4.458794	Maastricht	-0.07165243
-4.458794	Madam	-0.2156118
-4.0683	Madame	-0.1540554
-4.882486	Malta	-0.09418621
-4.882486	Many	-0.08808212
-4.299271	March	-0.1291443
-4.882486	Marinho	-0.09852702
-4.882486	Maritime	-0.1003378
-4.882486	Market	-0.06475839
-4.882486	Marseilles	-0.08357822
-4.299271	May	-0.09880592
-4.882486	Measures	-0.09772047
-4.882486	Medicines	-0.09792715
-2.891513	Member	-0.5012689
-3.293807	Members	-0.2186602
-4.882486	Memorandum	-0.09934091
-4.882486	Men	-0.09926419
-4.882486	Merit	-0.09915676
-4.882486	Messrs	-0.1003217
-4.882486	Middelhoek	-0.09016214
-4.882486	Middle	-0.1003217
-4.882486	Midlands	-0.08357822
-4.882486	Millennium	-0.1003378
-4.882486	Mind	-0.09944829
-3.80705	Minister	-0.07589813
-4.458794	Ministers	-0.1362695
-4.882486	Ministry	-0.08357822
-4.882486	Minutes	-0.09632342
-4.882486	Mitrovica	-0.09993883
-4.882486	Monday	-0.08456346
-4.882486	Monetary	-0.1002911
-4.882486	Monsieur	-0.1003284
-4.882486	Monti	-0.07680774
-4.882486	Moratinos	-0.09825911
-4.882486	Moreover	-0.08357822
-4.882486	Morgan	-0.1000001
-4.882486	Most	-0.1002298
-4.882486	Moura	-0.07846652
-4.882486	Mouskouri	-0.08456346
-2.891513	Mr	-0.2169371
-3.32501	Mrs	-0.20817
-4.882486	Much	-0.1003284
-4.458794	My	-0.1086312
-4.882486	Myller	-0.1000154
-4.458794	NATO	-0.08326316
-4.882486	Nana	-0.1003378
-4.299271	National	-0.1737632
-4.882486	Nations	-0.06977979
-4.882486	Natural	-0.1003378
-4.882486	Naturally	-0.08221707
-4.882486	Nazi	-0.09990819
-4.882486	Nazism	-0.08456346
-4.882486	Neither	-0.096425
-4.882486	Net	-0.08456346
-4.458794	Netherlands	-0.09764347
-4.882486	Neuwerk	-0.0998469
-4.882486	Nevertheless	-0.07437466
-4.299271	New	-0.100317
-4.882486	Next	-0.08357822
-4.458794	Nielson	-0.06600013
-4.882486	Nikitin	-0.09016214
-4.458794	No	-0.0821466
-4.882486	None	-0.08868667
-4.882486	Nonetheless	-0.08357822
-4.882486	Nor	-0.09969363
-4.458794	Northern	-0.2157036
-4.882486	Norway	-0.08357822
-4.882486	Nos	-0.1001992
-4.882486	Not	-0.09694093
-4.882486	November	-0.1001992
-4.882486	Now	-0.07131385
-4.882486	Numerous	-0.09972429
-4.882486	OF	-0.1003378
-3.527366	OLAF	-0.1719806
-3.80705	Objective	-0.2430282
-4.882486	Ocean	-0.0992335
-4.882486	October	-0.1001992
-4.882486	Of	-0.09920512
-4.458794	Office	-0.07846652
-4.882486	Official	-0.1003378
-4.458794	Ombudsman	-0.1533397
-4.882486	On	-0.0853143
-4.882486	Once	-0.08520705
-4.882486	One	-0.08356951
-4.882486	Only	-0.06977979
-4.882486	Opportunities	-0.08357822
-4.882486	Organisation	-0.08357822
-4.882486	Oslo	-0.08357822
-4.882486	Others	-0.100092
-4.882486	Our	-0.09904386
-4.882486	Out	-0.08868667
-4.882486	Over	-0.09983157
-4.882486	Own	-0.1002145
-4.882486	PPE	-0.1002145
-4.458794	PPE-DE	-0.1000243
-4.882486	PR	-0.1001533
-4.882486	PREUSSAG	-0.09027181
-4.882486	PSE	-0.1002145
-4.882486	PVC	-0.1003378
-4.882486	Paddington	-0.1003217
-4.299271	Palacio	-0.1373219
-4.882486	Palestine	-0.08357822
-4.882486	Palestinian	-0.1002451
-4.882486	Palestinians	-0.09792715
-4.882486	Paper	-0.04062799
-2.750264	Parliament	-0.2509301
-4.882486	Parliamentarians	-0.08357822
-4.458794	Parliamentary	-0.09981646
-4.882486	Particular	-0.1001992
-3.80705	Party	-0.1429441
-4.882486	Past	-0.1003064
-4.458794	Patten	-0.09474713
-4.882486	Peking	-0.08757798
-4.0683	People	-0.1882598
-4.882486	Perhaps	-0.08810691
-4.882486	Pillar	-0.1003284
-4.882486	Plans	-0.07946341
-4.882486	Plantation	-0.08357822
-4.882486	Please	-0.09963462
-4.882486	Poettering	-0.08356253
-4.458794	Policy	-0.07063742
-4.882486	Political	-0.1003217
-4.882486	Pomes	-0.1003378
-4.882486	Ponnambalam	-0.08357822
-4.458794	Portugal	-0.08323725
-4.458794	Portuguese	-0.09990399
-3.80705	Presidency	-0.1042996
-3.478651	President	-0.1838655
-4.882486	President-designate	-0.1002911
-4.0683	President-in-Office	-0.231549
-4.882486	Presidents	-0.09016214
-4.882486	Prevention	-0.09852702
-4.882486	Prime	-0.1002758
-4.882486	Principality	-0.08456346
-4.882486	Procedure	-0.08053814
-3.91832	Prodi	-0.09493939
-4.882486	Programme	-0.08456346
-4.882486	Progress	-0.1003378
-4.882486	Prosecutor	-0.09130687
-4.882486	Protection	-0.08868667
-4.458794	Protocol	-0.06716524
-4.882486	Provided	-0.09791175
-4.882486	Providing	-0.09983157
-4.458794	Public	-0.1003227
-4.458794	QMV	-0.08629929
-4.882486	Question	-0.1003378
-4.882486	Quite	-0.1001533
-4.882486	Quotas	-0.09792715
-4.882486	Racist	-0.1001533
-4.882486	Randzio-Plath	-0.1002145
-4.882486	Raphael	-0.1003378
-4.882486	Rapid	-0.1003217
-4.882486	Rapkay	-0.08789982
-4.882486	Rather	-0.09989287
-4.882486	Recommendations	-0.09903396
-4.882486	Reding	-0.08357822
-4.458794	Regional	-0.1003133
-4.882486	Regulation	-0.07195605
-4.882486	Regulations	-0.09632342
-4.882486	Reich	-0.08456346
-4.882486	Remember	-0.09418621
-4.882486	Report	-0.08456346
-4.882486	Representative	-0.09542646
-4.882486	Representatives	-0.08868667
-4.299271	Republic	-0.1459097
-4.882486	Research	-0.08789982
-4.882486	Resolution	-0.08868667
-4.882486	Retrospective	-0.1000154
-4.882486	Right	-0.1003378
-4.0683	Rights	-0.09256506
-4.882486	Rio	-0.1003378
-4.458794	Roma	-0.1448966
-4.882486	Romano	-0.1002911
-4.882486	Roth-Behrendt	-0.06847098
-4.882486	Rotterdam	-0.08357822
-4.882486	Round	-0.09027181
-4.882486	Rover	-0.09027181
-4.882486	Royal	-0.1003378
-4.882486	Ruiz	-0.09646244
-4.882486	Rule	-0.1003378
-4.882486	Rules	-0.08868667
-4.458794	Russia	-0.07954371
-4.882486	Russians	-0.1001686
-4.458794	SAVE	-0.08768831
-4.458794	SMEs	-0.09524956
-4.882486	SPÖ	-0.08675753
-4.882486	Sadly	-0.07717682
-4.458794	Safety	-0.1002454
-4.882486	Salafranca	-0.09926419
-4.458794	Santer	-0.09996298
-4.882486	Schreyer	-0.07954371
-4.458794	Schroedter	-0.07791201
-4.882486	Schröder	-0.1003378
-4.882486	Schulz	-0.09980975
-4.299271	Schüssel	-0.06791756
-4.882486	Scientists	-0.09831177
-4.299271	Scotland	-0.0536428
-4.458794	Sea	-0.08353966
-4.882486	Seattle	-0.08456346
-4.458794	Second	-0.08355556
-4.882486	Secondly	-0.08290277
-4.882486	Secretary	-0.08868667
-4.882486	Security	-0.1003217
-4.458794	September	-0.05151688
-4.458794	Serbian	-0.1001878
-4.0683	Serbs	-0.2023503
-4.882486	Serious	-0.1002451
-4.882486	Service	-0.08357822
-4.882486	Several	-0.1001226
-4.882486	Shame	-0.09632342
-4.458794	Sharm	-0.2157503
-4.882486	She	-0.1002758
-4.882486	Shell	-0.08789982
-4.882486	Shetland	-0.1003378
-4.882486	Should	-0.08895625
-4.882486	Similarly	-0.08357822
-4.882486	Since	-0.07882203
-4.882486	Singapore	-0.08789982
-4.882486	Slovakia	-0.08789982
-4.882486	So	-0.06662989
-3.80705	Social	-0.2206473
-4.882486	Socialism	-0.07063742
-4.882486	Socialist	-0.1002145
-4.299271	Socialists	-0.07399469
-4.882486	Solana	-0.08357822
-4.882486	Some	-0.08818562
-4.882486	Sometimes	-0.09825025
-4.882486	Sound	-0.1002451
-4.882486	South	-0.1003284
-4.882486	Spanish	-0.1003378
-4.882486	Speaking	-0.09027181
-4.882486	Spencer	-0.08456346
-4.458794	Sri	-0.1003321
-4.882486	St.	-0.1003378
-4.882486	Staes	-0.09851164
-4.882486	Standardisation	-0.08456346
-4.882486	Standards	-0.07833772
-4.882486	Start	-0.1003378
-4.299271	State	-0.03743017
-3.91832	States	-0.005657181
-4.882486	Stenzel	-0.0824564
-4.882486	Stewart	-0.1001686
-4.458794	Strasbourg	-0.09694982
-4.882486	Stream	-0.08328501
-3.80705	Structural	-0.3564184
-4.882486	Such	-0.1003284
-4.0683	Summit	-0.08558965
-4.882486	Super	-0.1003378
-4.882486	Surely	-0.09825025
-4.882486	Sweden	-0.08357822
-4.458794	Switzerland	-0.07400075
-3.91832	Syria	-0.05841574
-4.882486	Syrian	-0.1002387
-4.458794	TACIS	-0.09890461
-4.458794	TAOs	-0.08231281
-4.458794	TV	-0.09935647
-4.0683	Tajikistan	-0.06973749
-4.882486	Taking	-0.09961697
-3.645072	Tampere	-0.09103373
-4.882486	Tang	-0.08789982
-4.882486	Task	-0.1003378
-4.882486	Tauern	-0.1003378
-4.882486	Terrón	-0.09981625
-4.882486	Thank	-0.09944829
-4.882486	That	-0.08112416
-4.299271	The	-0.08307422
-4.882486	Theato	-0.09274232
-4.882486	Then	-0.07757584
-4.882486	There	-0.08479089
-4.882486	Therefore	-0.08357822
-4.882486	These	-0.09619683
-4.882486	They	-0.09446133
-4.458794	Third	-0.08354963
-4.882486	Thirdly	-0.08290277
-4.458794	This	-0.06525965
-4.882486	Thors	-0.08456346
-4.882486	Those	-0.08765009
-4.882486	Though	-0.09983157
-4.882486	Three	-0.1002145
-4.458794	Thursday	-0.08784588
-4.882486	Thus	-0.08357822
-3.645072	Tibet	-0.1262727
-4.458794	Tibetan	-0.09952809
-4.458794	Tibetans	-0.08205745
-4.882486	Time	-0.09937159
-4.882486	To	-0.09076898
-3.91832	Tobin	-0.3017351
-4.882486	Today	-0.09112594
-4.882486	Together	-0.09846553
-4.882486	Tom	-0.1003378
-4.882486	Too	-0.0998404
-4.882486	Torrey	-0.1003378
-4.882486	Tourism	-0.06716524
-4.882486	Tower	-0.08456346
-4.458794	Trade	-0.1989908
-4.882486	Transitional	-0.1001839
-4.458794	Transport	-0.08762527
-4.882486	Treaties	-0.07462078
-3.718553	Treaty	-0.03053979
-4.882486	Trittin	-0.08357822
-4.882486	Tuesday	-0.09915676
-4.882486	Tunnel	-0.08357822
-3.91832	Turkey	-0.06316307
-4.882486	Turkish	-0.1002235
-4.882486	Turkmenistan	-0.1002605
-4.882486	Turning	-0.08953726
-4.882486	Two	-0.08834989
-4.882486	TÜV	-0.08341235
-4.882486	UCLAF	-0.09851164
-4.458794	UK	-0.05332143
-4.882486	UN	-0.1003284
-4.299271	UNMIK	-0.1450929
-4.882486	URBAN	-0.08357822
-4.882486	US	-0.09851164
-4.882486	USA	-0.06905411
-4.0683	USD	-0.1000639
-4.882486	USSR	-0.08456346
-4.882486	Ulster	-0.1003378
-4.882486	Ultimately	-0.08357822
-4.882486	Under	-0.09979443
-4.882486	Unfortunately	-0.08025888
-4.0683	Union	-0.01428169
-4.882486	Union-China	-0.1001073
-4.882486	UnionChina	-0.1003064
-4.882486	Unionist	-0.1001226
-4.299271	United	-0.1428328
-4.882486	Uzbekistan	-0.08789982
-4.882486	VAT	-0.08456346
-4.882486	VOTE	-0.09851164
-4.882486	Valentine	-0.09926419
-4.882486	Vallelersundi	-0.09852702
-4.882486	Valuable	-0.1003378
-4.882486	Vehicles	-0.1003217
-4.882486	Verheugen	-0.08456346
-4.458794	Vice-President	-0.08790302
-4.458794	Vitorino	-0.05145563
-4.882486	Vivienne	-0.1003378
-4.882486	Vote	-0.09027181
-3.718553	Wales	-0.1115282
-4.458794	Wallström	-0.08357231
-4.882486	Want	-0.08456346
-4.458794	War	-0.07937627
-4.882486	Washington	-0.08789982
-4.458794	We	-0.08521748
-4.882486	Wednesday	-0.08456346
-4.882486	Well	-0.07171088
-4.882486	Welshman	-0.09926419
-4.299271	West	-0.1002491
-4.299271	What	-0.1228345
-4.882486	Whatever	-0.09100084
-4.882486	When	-0.06534904
-4.882486	Where	-0.09024283
-4.882486	Whether	-0.09698068
-4.882486	While	-0.08924887
-3.645072	White	-0.7550618
-4.882486	Who	-0.09734417
-4.882486	Why	-0.09258887
-4.882486	Wieland	-0.09136041
-4.882486	Wilhelmshaven	-0.08357822
-4.882486	Will	-0.09057837
-4.882486	Wise	-0.1003378
-4.882486	With	-0.09667206
-4.882486	Within	-0.09694093
-4.882486	Wogau	-0.08154868
-4.882486	Women	-0.09926419
-4.299271	World	-0.173211
-4.882486	Would	-0.09735073
-4.882486	Wulf-Mathies	-0.1003064
-4.882486	Wurtz	-0.09016214
-4.458794	Wye	-0.1003227
-4.882486	Yes	-0.08357822
-4.882486	York	-0.09841941
-4.882486	You	-0.09215043
-4.882486	Your	-0.0993739
-4.882486	Youth	-0.08357822
-4.882486	Yugoslavia	-0.08456346
-4.882486	Zealand	-0.09981625
-3.91832	`	-0.09753375
-3.142756	``	-0.09702961
-2.10768	a	-0.2194168
-4.882486	abandoned	-0.1001226
-4.882486	abide	-0.09770507
-4.882486	abided	-0.097727
-4.299271	ability	-0.3189174
-3.358629	able	-0.670982
-4.882486	abolish	-0.09996947
-4.458794	abolished	-0.08454086
-4.882486	abolishing	-0.09149202
-4.882486	aborting	-0.09961697
-2.605182	about	-0.1612382
-4.0683	above	-0.3194432
-4.882486	above-mentioned	-0.1002298
-4.882486	absence	-0.08357822
-4.882486	absent	-0.09995415
-4.882486	absolute	-0.1003284
-3.645072	absolutely	-0.1073402
-4.882486	absorbing	-0.1003064
-4.882486	abstain	-0.09961697
-4.882486	abstained	-0.09632342
-4.882486	abstentions	-0.08357822
-4.882486	abundantly	-0.1000154
-4.458794	abuse	-0.07753187
-4.458794	abuses	-0.08192293
-4.882486	academy	-0.09780399
-4.882486	accedes	-0.09825025
-4.882486	accelerated	-0.08456346
-3.582243	accept	-0.3156036
-4.882486	acceptable	-0.09027181
-3.80705	acceptance	-0.2128507
-3.645072	accepted	-0.05889978
-4.882486	accepts	-0.09825025
-4.0683	access	-0.1318924
-4.882486	accession	-0.1002298
-4.0683	accident	-0.08146875
-4.458794	accidents	-0.1003133
-4.882486	accommodate	-0.09957097
-4.458794	accommodated	-0.08390544
-4.458794	accompanied	-0.09676466
-4.882486	accompanying	-0.09999362
-4.882486	accomplished	-0.08789982
-4.299271	accord	-0.0818271
-4.458794	accordance	-0.2131395
-4.882486	accorded	-0.09825025
-3.718553	according	-0.6868942
-4.882486	accordingly	-0.08456346
-3.718553	account	-0.151064
-4.0683	accountability	-0.1216363
-4.299271	accountable	-0.08155546
-4.882486	accounting	-0.09542646
-4.882486	accounts	-0.08357822
-4.882486	accumulation	-0.08868667
-4.299271	accused	-0.1615541
-3.80705	achieve	-0.03803203
-4.299271	achieved	-0.06939244
-4.882486	achieves	-0.1002145
-4.299271	achieving	-0.1308479
-4.882486	acknowledge	-0.09935625
-4.458794	acknowledged	-0.08812935
-4.882486	acknowledges	-0.09149202
-4.458794	acquire	-0.09413305
-4.882486	acquis	-0.1003378
-4.882486	acquitted	-0.1002145
-4.882486	acres	-0.09975494
-3.527366	across	-0.168527
-4.299271	act	-0.05391077
-4.299271	acted	-0.1686126
-4.299271	acting	-0.06329141
-3.164557	action	-0.1188641
-3.645072	actions	-0.0603297
-4.882486	activators	-0.09027181
-4.299271	active	-0.1635019
-4.882486	actively	-0.1001533
-3.645072	activities	-0.05159258
-3.91832	activity	-0.07062598
-4.882486	activity-based	-0.1001992
-4.882486	actors	-0.09792715
-4.882486	acts	-0.09780399
-4.458794	actual	-0.09994766
-3.395072	actually	-0.1061938
-4.882486	acute	-0.1003378
-4.882486	acutely	-0.1002605
-4.458794	ad	-0.1003321
-4.458794	adaptability	-0.07165243
-4.882486	adaptation	-0.1003284
-4.458794	adapted	-0.2055747
-4.458794	adapting	-0.2069046
-4.0683	add	-0.1370186
-4.882486	add-on	-0.08456346
-4.458794	added	-0.2055747
-4.882486	adding	-0.09016214
-4.458794	addition	-0.1248746
-4.458794	additional	-0.0999025
-4.458794	additionality	-0.0823858
-4.458794	additions	-0.08986667
-4.299271	address	-0.06054523
-3.91832	addressed	-0.08629777
-4.458794	addressing	-0.09117284
-4.882486	adds	-0.09016214
-3.91832	adequate	-0.0732638
-4.882486	adhere	-0.09016214
-4.882486	adhered	-0.09016214
-4.882486	adherents	-0.08456346
-4.882486	adheres	-0.09016214
-4.882486	adjustment	-0.09027181
-3.718553	administration	-0.05751535
-3.80705	administrative	-0.09983722
-4.882486	admiration	-0.09542646
-4.458794	admit	-0.0810505
-4.882486	admitting	-0.09990819
-4.458794	adopt	-0.1270703
-3.478651	adopted	-0.08271249
-4.882486	adoption	-0.08868667
-4.458794	adopts	-0.09449003
-4.882486	adult	-0.1003378
-4.299271	advance	-0.06936677
-4.882486	advanced	-0.09998479
-4.882486	advancement	-0.08868667
-4.882486	advantage	-0.08357822
-4.882486	advent	-0.08868667
-4.882486	adversaries	-0.08789982
-4.299271	advice	-0.1286413
-4.458794	advise	-0.09089135
-4.882486	advisers	-0.09975494
-4.882486	advising	-0.08357822
-4.882486	advocate	-0.09418621
-4.882486	advocated	-0.09027181
-4.882486	advocates	-0.08868667
-4.882486	affair	-0.0992335
-3.91832	affairs	-0.07494599
-4.458794	affect	-0.0914229
-3.718553	affected	-0.1007093
-4.882486	affects	-0.09149202
-4.882486	afflicted	-0.09791175
-4.299271	afford	-0.09067464
-4.882486	afforded	-0.09149202
-4.882486	affording	-0.09132914
-4.882486	affords	-0.1002298
-4.458794	afraid	-0.08236068
-4.882486	afresh	-0.09027181
-3.395072	after	-0.1762597
-4.882486	afternoon	-0.06476545
-4.882486	afterwards	-0.08456346
-3.047654	again	-0.09451964
-2.87975	against	-0.2410512
-4.299271	age	-0.1448966
-4.882486	agencies	-0.09027181
-4.458794	agency	-0.0899047
-3.582243	agenda	-0.1521156
-4.882486	aggressive	-0.1002451
-3.718553	ago	-0.1076103
-3.645072	agree	-0.3123237
-3.80705	agreed	-0.0712345
-3.395072	agreement	-0.1120503
-4.299271	agreements	-0.09380919
-4.299271	agrees	-0.0811397
-4.882486	agricultural	-0.09989287
-4.299271	agriculture	-0.07903881
-3.91832	ahead	-0.06711114
-3.237416	aid	-0.05055957
-3.582243	aim	-0.179644
-4.882486	air	-0.1003217
-4.882486	air-borne	-0.08357822
-4.882486	airports	-0.08456346
-4.882486	akin	-0.09016214
-4.458794	albeit	-0.09136041
-4.299271	alert	-0.08340558
-2.741736	all	-0.07641202
-4.882486	all-important	-0.08357822
-4.299271	allegations	-0.1459097
-4.882486	alleged	-0.08357822
-4.882486	alleviate	-0.09092264
-4.882486	alleviation	-0.08456346
-4.882486	alliances	-0.08789982
-4.882486	allocate	-0.0998469
-4.882486	allocated	-0.09016214
-4.299271	allocation	-0.07547135
-3.91832	allow	-0.07335484
-4.882486	allowance	-0.1003217
-4.299271	allowed	-0.3189174
-4.458794	allowing	-0.09051575
-4.882486	alluded	-0.09016214
-3.645072	almost	-0.09695845
-4.299271	alone	-0.06608295
-3.718553	along	-0.1889811
-4.458794	alongside	-0.09078184
-3.32501	already	-0.1555243
-2.815171	also	-0.02219974
-4.882486	alter	-0.09935625
-4.882486	alternating	-0.1003378
-4.458794	alternative	-0.09541119
-4.882486	alternatively	-0.08357822
-4.882486	alternatives	-0.08456346
-3.80705	although	-0.1170808
-4.0683	altogether	-0.12566
-3.645072	always	-0.1216602
-4.299271	am	-0.04700129
-4.882486	amassing	-0.1002911
-4.458794	ambiguity	-0.08091566
-4.882486	ambition	-0.08357822
-4.882486	ambitious	-0.1003064
-4.882486	ambulances	-0.09016214
-4.882486	amend	-0.09072823
-3.91832	amended	-0.06279379
-4.882486	amending	-0.1003284
-3.80705	amendment	-0.05957641
-3.142756	amendments	-0.09435123
-4.299271	among	-0.1645977
-4.299271	amongst	-0.1643944
-3.80705	amount	-0.1714689
-3.91832	amounts	-0.258041
-4.882486	ample	-0.09983157
-2.531612	an	-0.2007295
-4.882486	analysed	-0.08456346
-4.0683	analysis	-0.1393533
-4.882486	anathema	-0.09016214
-4.882486	anchor	-0.08456346
-4.882486	ancillary	-0.09016214
-1.549043	and	-0.09350644
-4.882486	anger	-0.09027181
-4.882486	angry	-0.09841941
-4.299271	animal	-0.1613179
-4.882486	animosities	-0.09934091
-4.882486	annex	-0.0874834
-4.882486	annexes	-0.09934091
-4.299271	announced	-0.08793369
-4.882486	announcement	-0.09926419
-4.882486	announcements	-0.09027181
-4.882486	annoy	-0.09149202
-4.882486	annoyed	-0.1000614
-4.458794	annual	-0.0999783
-4.882486	anonymously	-0.09996947
-3.80705	another	-0.09666589
-3.582243	answer	-0.1866212
-4.882486	answered	-0.09964763
-4.882486	answers	-0.1001992
-4.882486	ante	-0.1002999
-4.882486	anti-Irish	-0.1003284
-4.882486	anti-fascist	-0.09969363
-4.458794	anti-fraud	-0.2157036
-4.882486	anti-liberalism	-0.08357822
-4.882486	anti-minority	-0.08456346
-4.882486	anticipated	-0.1002145
-4.882486	anxious	-0.09418621
-2.942033	any	-0.09713015
-4.458794	anyone	-0.2150602
-3.718553	anything	-0.104461
-4.882486	apart	-0.08789982
-4.882486	apex	-0.08868667
-4.882486	apologies	-0.08357822
-4.882486	apologise	-0.09542646
-4.882486	appalled	-0.097727
-4.882486	appealing	-0.08456346
-4.299271	appear	-0.3189174
-4.299271	appears	-0.07984272
-4.882486	applause	-0.09969363
-3.91832	applicable	-0.1721129
-4.299271	applicant	-0.1734341
-3.80705	application	-0.2729274
-4.299271	applications	-0.1465458
-3.91832	applied	-0.1131978
-4.299271	applies	-0.1464317
-3.582243	apply	-0.05853587
-4.299271	applying	-0.2018857
-4.458794	appointed	-0.0840326
-4.458794	appointment	-0.1154882
-4.882486	appointments	-0.08789982
-4.458794	appraisal	-0.07589946
-3.91832	appreciate	-0.06809446
-4.882486	appreciation	-0.09016214
-3.434854	approach	-0.05921695
-4.882486	approaches	-0.09016214
-4.882486	approaching	-0.09149202
-3.527366	appropriate	-0.06232513
-4.882486	appropriately	-0.08789982
-4.882486	appropriations	-0.09542646
-4.299271	approval	-0.05547506
-4.882486	approvals	-0.09969363
-4.882486	approve	-0.1000461
-3.645072	approved	-0.04875335
-4.882486	approves	-0.09791175
-4.882486	approving	-0.1003217
-4.882486	approximately	-0.1003378
-4.882486	approximation	-0.08868667
-4.882486	aptly	-0.1000001
-4.882486	arbitrarily	-0.1001226
-4.458794	arbitrary	-0.09957981
-2.255833	are	-0.06416832
-3.358629	area	-0.1607291
-3.164557	areas	-0.2461589
-4.882486	argue	-0.09418621
-4.458794	argument	-0.08919857
-3.80705	arguments	-0.06916726
-4.882486	aridity	-0.08456346
-4.0683	arise	-0.04924017
-4.882486	arisen	-0.09646244
-4.0683	arising	-0.07746976
-4.882486	armaments	-0.1001073
-4.882486	armed	-0.1003284
-4.458794	arms	-0.07536497
-3.91832	around	-0.1966982
-4.882486	arrangement	-0.09970896
-4.458794	arrangements	-0.08330093
-4.299271	arrived	-0.1560085
-4.882486	arrives	-0.08456346
-4.882486	arrogance	-0.09027181
-4.458794	art	-0.07299123
-4.882486	articles	-0.08456346
-2.234306	as	-0.2981032
-4.882486	ascertain	-0.09947896
-4.882486	ascertaining	-0.09947896
-4.458794	aside	-0.1001315
-3.478651	ask	-0.2313215
-3.32501	asked	-0.1637693
-4.0683	asking	-0.1262122
-4.299271	asks	-0.3288014
-4.458794	aspect	-0.08247234
-3.80705	aspects	-0.2894489
-4.882486	aspirations	-0.08789982
-4.882486	assassinated	-0.09972429
-4.458794	assaulted	-0.2033124
-4.882486	assaults	-0.06716524
-4.882486	assembly	-0.08456346
-4.299271	assess	-0.1641284
-4.458794	assessed	-0.2131395
-4.882486	assessing	-0.09149202
-4.0683	assessment	-0.08907883
-4.882486	assessments	-0.09874216
-4.882486	asset	-0.1003378
-4.882486	assets	-0.09610052
-4.882486	assigned	-0.09016214
-4.882486	assignment	-0.09016214
-4.458794	assist	-0.09743664
-3.582243	assistance	-0.04717647
-4.458794	associated	-0.09765887
-4.458794	associations	-0.08528629
-4.882486	assuage	-0.09791175
-4.882486	assumes	-0.0986346
-4.458794	assuming	-0.09171966
-4.882486	assurance	-0.09418621
-4.882486	assurances	-0.09989287
-4.458794	assure	-0.09057837
-4.458794	assured	-0.08919857
-4.882486	astute	-0.09938693
-3.527366	asylum	-0.1791781
-2.354523	at	-0.44406
-4.0683	attached	-0.4438561
-4.882486	attaches	-0.09016214
-4.882486	attack	-0.09841941
-4.299271	attacks	-0.09330272
-4.882486	attained	-0.09935625
-4.0683	attempt	-0.1136083
-4.882486	attempted	-0.09016214
-4.882486	attempting	-0.09016214
-4.458794	attempts	-0.2055747
-4.882486	attendance	-0.08357822
-4.882486	attended	-0.09016214
-4.882486	attending	-0.09016214
-3.478651	attention	-0.2016844
-4.882486	attentively	-0.1000308
-4.299271	attitude	-0.1516655
-4.882486	attracting	-0.1003217
-4.458794	attractive	-0.08449323
-4.882486	attracts	-0.1003284
-4.299271	audit	-0.1539014
-4.882486	auditing	-0.08868667
-4.882486	audits	-0.08456346
-4.882486	auspices	-0.08789982
-4.458794	authorised	-0.1001161
-4.882486	authoritarian	-0.1003378
-3.645072	authorities	-0.1435205
-3.293807	authority	-0.2115373
-4.882486	auto-oil	-0.1000154
-4.458794	automatically	-0.1003227
-4.882486	autonomy	-0.08357822
-4.882486	autumn	-0.08456346
-4.882486	avail	-0.09958631
-3.478651	available	-0.07575481
-4.882486	avalanche	-0.08357822
-4.882486	avalanches	-0.0996783
-4.882486	aviation	-0.1003378
-4.299271	avoid	-0.1147355
-4.882486	avoiding	-0.09975494
-4.882486	await	-0.09986222
-4.458794	awaiting	-0.09565204
-4.882486	awarded	-0.09016214
-4.882486	awarding	-0.1003284
-3.718553	aware	-0.2858517
-3.80705	away	-0.1952815
-4.882486	awoken	-0.1003378
-4.882486	b	-0.1001533
-3.293807	back	-0.1923063
-4.882486	backbenchers	-0.09874216
-4.458794	background	-0.06056569
-4.882486	backhanders	-0.09016214
-3.645072	bad	-0.07094492
-4.458794	badly	-0.09994846
-4.299271	balance	-0.1308437
-4.882486	balanced	-0.08784588
-3.718553	ban	-0.1531827
-4.882486	bandying	-0.09926419
-4.882486	bang	-0.1001839
-4.882486	bank	-0.1001992
-4.882486	banker	-0.0998469
-4.299271	banks	-0.08065268
-4.458794	banning	-0.09014668
-4.882486	barbarism	-0.08456346
-4.299271	barely	-0.1001776
-4.458794	barrier	-0.08454086
-4.458794	barriers	-0.08396903
-3.91832	base	-0.1035514
-4.882486	baseball	-0.1003378
-3.478651	based	-0.4518859
-4.882486	bases	-0.08789982
-3.91832	basic	-0.09925012
-4.882486	basically	-0.1002298
-3.395072	basis	-0.2863298
-4.458794	battle	-0.09484671
-2.67894	be	-0.04914294
-4.0683	bear	-0.2253312
-4.458794	bearing	-0.08615698
-4.458794	bears	-0.09148622
-4.882486	beat	-0.09149202
-4.882486	became	-0.1002911
-2.776903	because	-0.323678
-3.582243	become	-0.1175325
-4.299271	becomes	-0.07063131
-4.0683	becoming	-0.08707564
-3.91832	beef	-0.1178125
-3.102184	been	-0.07403882
-4.882486	beer	-0.08357822
-4.882486	befit	-0.09935625
-2.984198	before	-0.300427
-4.299271	began	-0.06757107
-3.718553	begin	-0.1202307
-4.882486	beginning	-0.08868667
-4.882486	begins	-0.08789982
-4.458794	behalf	-0.2040992
-4.882486	behaving	-0.09027181
-4.0683	behaviour	-0.07646912
-3.80705	behind	-0.07460701
-2.868298	being	-0.1129674
-4.458794	belief	-0.08396903
-4.882486	beliefs	-0.09937159
-3.434854	believe	-0.2028512
-4.882486	believed	-0.08396903
-4.882486	believes	-0.09825025
-4.882486	believing	-0.09418621
-4.882486	belong	-0.09016214
-4.882486	belonged	-0.09016214
-4.458794	below	-0.09407094
-4.458794	benches	-0.08704171
-4.882486	beneficial	-0.08357822
-4.882486	beneficiaries	-0.08868667
-4.0683	benefit	-0.08774703
-4.458794	benefited	-0.09859735
-4.882486	benefiting	-0.1001839
-3.91832	benefits	-0.06255984
-4.882486	bequeathed	-0.09016214
-4.882486	besides	-0.09961697
-3.527366	best	-0.1749878
-4.882486	bestow	-0.1003378
-4.882486	betokens	-0.1002605
-3.527366	better	-0.0994634
-2.903603	between	-0.3262496
-3.645072	beyond	-0.09366451
-4.882486	bidder	-0.09852702
-4.458794	big	-0.1000339
-4.458794	bigger	-0.1003007
-4.882486	bilateral	-0.1001226
-4.882486	bill	-0.09542646
-4.299271	billion	-0.08367689
-4.882486	billions	-0.08357822
-4.0683	binding	-0.06869454
-4.882486	bio	-0.1000767
-4.458794	birds	-0.08729416
-4.882486	bit	-0.08454781
-4.458794	bitter	-0.100316
-4.882486	bizarre	-0.08456346
-4.882486	black	-0.1002298
-4.882486	blame	-0.09542646
-4.882486	blank	-0.1003378
-4.882486	blatant	-0.1003378
-4.882486	blind	-0.09027181
-4.882486	blindingly	-0.1003284
-4.882486	blip	-0.0996783
-4.458794	block	-0.07538098
-4.882486	blockading	-0.1002451
-4.882486	blocked	-0.1003064
-4.882486	blocks	-0.09149202
-4.882486	bloom	-0.08456346
-4.882486	blow	-0.09542646
-4.882486	blundered	-0.09027181
-4.458794	board	-0.05717876
-4.882486	boats	-0.1002605
-4.0683	bodies	-0.1225099
-3.91832	body	-0.1443153
-4.882486	bogged	-0.1000614
-4.458794	bogus	-0.1003321
-4.882486	bolster	-0.09791175
-4.882486	bomb	-0.1003378
-4.458794	bombs	-0.07753187
-4.299271	book	-0.09331167
-4.882486	books	-0.08357822
-4.882486	boom	-0.09027181
-4.458794	boost	-0.09148622
-4.299271	border	-0.09993253
-3.80705	borders	-0.1627715
-4.882486	borne	-0.097727
-3.237416	both	-0.09193825
-4.882486	bother	-0.1002145
-4.299271	bound	-0.3189174
-4.882486	boundaries	-0.08648224
-4.882486	bowed	-0.09016214
-4.882486	brake	-0.09632342
-4.458794	brand	-0.2040992
-4.882486	brass	-0.1003378
-4.882486	breach	-0.08868667
-4.882486	bread	-0.08456346
-4.882486	breadth	-0.08868667
-4.458794	break	-0.09895068
-4.882486	breakdown	-0.08868667
-4.299271	breaking	-0.09914373
-4.882486	bridge	-0.08789982
-4.882486	brief	-0.1001468
-4.299271	briefly	-0.08572304
-3.80705	bring	-0.1802827
-4.299271	bringing	-0.09770739
-4.882486	brings	-0.09016214
-4.458794	broad	-0.08356253
-4.882486	broadly	-0.1001992
-4.0683	broke	-0.09892308
-3.582243	brought	-0.1058548
-4.882486	brush	-0.09969363
-4.882486	bubbles	-0.1003284
-4.882486	buckets	-0.1003284
-3.478651	budget	-0.1487549
-4.299271	budgetary	-0.09957583
-4.0683	build	-0.1139639
-3.80705	building	-0.1121745
-4.882486	buildings	-0.09775127
-4.882486	builds	-0.1003217
-4.458794	built	-0.09565204
-4.882486	bull	-0.09027181
-4.882486	bumpers	-0.08868667
-3.582243	burden	-0.1754567
-4.882486	burdened	-0.097727
-4.458794	bureaucracy	-0.07063742
-4.0683	bureaucratic	-0.09993625
-4.458794	bureaucrats	-0.08242449
-4.882486	burying	-0.1001839
-3.582243	business	-0.05299428
-4.299271	businesses	-0.0935605
-2.59302	but	-0.1610875
-4.458794	buyer	-0.07589946
-2.221374	by	-0.3058056
-4.882486	cadmium	-0.08789982
-3.582243	call	-0.3322177
-4.0683	called	-0.1489098
-4.0683	calling	-0.1432797
-4.458794	calls	-0.210839
-4.299271	came	-0.3189174
-4.0683	campaign	-0.08762764
-4.882486	campaigned	-0.09977027
-4.882486	campaigning	-0.08456346
-4.882486	camps	-0.09780399
-2.637166	can	-0.3587115
-4.882486	cancelled	-0.097727
-4.299271	candidate	-0.1685506
-4.882486	candidates	-0.08456346
-4.882486	candidly	-0.09016214
-4.882486	capabilities	-0.08456346
-4.882486	capability	-0.08357822
-4.882486	capable	-0.08868667
-4.299271	capacity	-0.1559128
-3.478651	capital	-0.148969
-4.882486	caps	-0.08357822
-3.32501	car	-0.1082107
-4.299271	card	-0.05589725
-4.299271	care	-0.1516655
-4.0683	career	-0.09452339
-4.0683	careful	-0.07252782
-3.80705	carefully	-0.1559312
-4.882486	carefulness	-0.0992335
-4.458794	carelessness	-0.08962239
-4.882486	cares	-0.08789982
-4.882486	caretaker	-0.1003217
-4.882486	carpet	-0.08852275
-3.80705	carried	-0.2961555
-4.882486	carries	-0.0998469
-4.882486	carry	-0.0997856
-4.882486	carrying	-0.0997856
-3.293807	cars	-0.1392515
-3.478651	case	-0.1343135
-3.264697	cases	-0.09510004
-4.882486	cash	-0.1002605
-4.882486	cast	-0.08868667
-4.882486	casting	-0.08868667
-4.882486	cat	-0.1001073
-4.882486	catalogue	-0.08868667
-4.299271	catastrophe	-0.06140615
-4.882486	catastrophes	-0.09958631
-4.882486	catastrophic	-0.1003064
-4.882486	catch	-0.09954031
-4.882486	categories	-0.08868667
-4.882486	category	-0.09986222
-4.0683	cause	-0.06138941
-3.91832	caused	-0.1128434
-4.458794	causes	-0.0885542
-4.458794	causing	-0.1001927
-4.882486	cease	-0.1003217
-4.458794	ceiling	-0.2040992
-4.882486	censure	-0.1003064
-3.527366	central	-0.1245337
-4.299271	centralised	-0.1533563
-4.299271	centrally	-0.0832464
-4.458794	centre	-0.08860139
-4.458794	centres	-0.07753187
-4.882486	centuries	-0.09851164
-4.0683	century	-0.05359167
-3.211747	certain	-0.09909207
-3.264697	certainly	-0.1558565
-4.882486	certainty	-0.06546265
-4.0683	certificate	-0.1377824
-4.458794	certificates	-0.08905721
-4.882486	chain	-0.08868667
-4.458794	chaired	-0.2131395
-4.882486	chairmanship	-0.09981625
-4.0683	challenge	-0.06464913
-4.882486	challenged	-0.08456346
-4.458794	challenges	-0.09540441
-4.458794	chamber	-0.0829187
-4.882486	chambers	-0.08868667
-4.882486	champion	-0.08868667
-4.0683	chance	-0.243187
-3.293807	change	-0.1047367
-4.458794	changed	-0.09979443
-4.458794	changeover	-0.2040992
-3.718553	changes	-0.1052049
-3.91832	changing	-0.3467237
-4.458794	channels	-0.09719658
-4.882486	chaotic	-0.08456346
-4.882486	character	-0.08868667
-4.882486	characterise	-0.09149202
-4.882486	charged	-0.097727
-4.882486	charges	-0.07165243
-4.0683	charter	-0.08503505
-4.458794	cheap	-0.1001688
-4.0683	check	-0.08654957
-4.882486	check-ups	-0.09903396
-3.645072	checks	-0.1275147
-4.882486	chemicals	-0.09886505
-4.882486	cheque	-0.08456346
-4.882486	children	-0.08789982
-4.882486	china	-0.1003378
-4.882486	chipped	-0.1002758
-4.882486	choice	-0.08357822
-4.882486	chose	-0.09969363
-4.299271	chosen	-0.07409141
-4.882486	christen	-0.09149202
-4.882486	chromium	-0.1002145
-4.882486	circulation	-0.09027181
-4.882486	circumstance	-0.08456346
-3.91832	circumstances	-0.09551579
-4.882486	circumvent	-0.09961697
-4.882486	cited	-0.09027181
-4.882486	citing	-0.09961697
-4.458794	citizen	-0.08916716
-3.358629	citizens	-0.1042044
-4.882486	citizenship	-0.09851164
-4.299271	civil	-0.1424943
-4.882486	civilians	-0.1002911
-4.458794	civilised	-0.08447736
-4.0683	claim	-0.243187
-4.458794	claims	-0.09433486
-4.882486	clarification	-0.08357822
-4.882486	clarified	-0.08409616
-4.882486	clarify	-0.08901007
-3.91832	clarity	-0.05865169
-4.882486	classic	-0.1001226
-4.299271	classification	-0.09961928
-4.882486	classifying	-0.1002145
-4.882486	clean	-0.09027181
-4.882486	clean-up	-0.08860139
-4.882486	cleaning	-0.09961697
-3.121996	clear	-0.2260356
-4.882486	cleared	-0.09027181
-3.358629	clearly	-0.05318414
-4.458794	climate	-0.06183161
-3.80705	close	-0.102001
-4.299271	closed	-0.09773607
-3.80705	closely	-0.1327549
-4.882486	closer	-0.09960164
-4.882486	closing	-0.100092
-4.882486	closure	-0.08868667
-3.91832	coalition	-0.124602
-4.882486	coast	-0.08456346
-4.882486	coastguard	-0.1001533
-4.882486	coastline	-0.08789982
-4.882486	coastlines	-0.09832715
-4.882486	coattails	-0.08868667
-3.80705	code	-0.07976737
-3.80705	codecision	-0.1223491
-4.299271	codes	-0.1604822
-4.299271	coexistence	-0.07026971
-4.882486	coherence	-0.09027181
-4.458794	coherent	-0.09900557
-4.458794	cohesion	-0.08446148
-3.80705	colleague	-0.1028565
-3.527366	colleagues	-0.1651915
-4.882486	collect	-0.1002605
-4.882486	collecting	-0.09149202
-4.458794	collection	-0.07145616
-4.882486	collective	-0.1003284
-4.882486	collectivity	-0.09937159
-4.882486	college	-0.09986222
-4.882486	colourful	-0.09986222
-4.458794	combat	-0.0913702
-4.882486	combating	-0.09955564
-4.882486	combined	-0.1001621
-3.434854	come	-0.1782722
-4.299271	comes	-0.1633138
-3.80705	coming	-0.1327482
-4.299271	comitology	-0.1568687
-4.882486	commence	-0.097727
-4.882486	commend	-0.09791175
-4.882486	commendation	-0.09016214
-4.882486	commensurate	-0.097727
-4.458794	comment	-0.09544427
-4.882486	commenting	-0.09027181
-3.645072	comments	-0.06100922
-4.882486	commercial	-0.1002605
-4.882486	commission	-0.09915676
-4.882486	commissioning	-0.08357822
-4.458794	commit	-0.2156424
-4.0683	commitment	-0.3457204
-3.80705	commitments	-0.06328687
-4.0683	committed	-0.1399707
-3.582243	committee	-0.1148768
-4.299271	committees	-0.08393047
-3.434854	common	-0.1015142
-4.458794	communal	-0.08788428
-4.882486	communautaire	-0.09632342
-4.458794	communicate	-0.09753564
-4.882486	communicates	-0.08456346
-3.645072	communication	-0.06047329
-4.882486	communications	-0.09886505
-4.882486	communists	-0.09027181
-4.458794	communities	-0.09391562
-3.91832	community	-0.1770137
-3.32501	companies	-0.1097402
-4.458794	company	-0.09012415
-4.882486	comparable	-0.08456346
-4.882486	comparatively	-0.1001839
-4.882486	comparison	-0.097727
-4.882486	compassion	-0.09851164
-4.458794	compatibility	-0.08085844
-4.882486	compatible	-0.1003064
-4.882486	compel	-0.1002298
-4.458794	compensate	-0.08647316
-4.882486	compensated	-0.08789982
-4.882486	compensating	-0.09981625
-4.882486	compensation	-0.08456346
-4.882486	compete	-0.097727
-4.0683	competence	-0.08327916
-4.882486	competences	-0.09168179
-4.458794	competent	-0.1001411
-2.942033	competition	-0.1856715
-4.882486	competition-friendly	-0.1002911
-3.645072	competitive	-0.1135879
-3.91832	competitiveness	-0.1920948
-4.882486	competitors	-0.0986346
-4.882486	compile	-0.08456346
-4.882486	compiled	-0.09542646
-4.299271	complacency	-0.05984377
-4.882486	complaint	-0.09977027
-4.458794	complement	-0.08735725
-4.882486	complemented	-0.097727
-4.882486	complete	-0.097727
-4.299271	completed	-0.06783509
-3.718553	completely	-0.1126163
-4.882486	completes	-0.0996783
-4.882486	completion	-0.08868667
-4.458794	complex	-0.1001161
-4.882486	complexities	-0.08456346
-4.882486	compliance	-0.097727
-4.882486	complicated	-0.09027181
-4.882486	complicity	-0.09027181
-4.882486	complies	-0.097727
-4.882486	complimenting	-0.0997856
-4.458794	comply	-0.2131395
-4.882486	complying	-0.097727
-4.882486	components	-0.09832715
-4.882486	composition	-0.08868667
-4.882486	compounds	-0.1003378
-4.458794	comprehensible	-0.07400075
-4.882486	comprehension	-0.09016214
-3.645072	comprehensive	-0.082017
-4.882486	comprise	-0.1002451
-4.882486	comprising	-0.09149202
-3.91832	compromise	-0.09693693
-4.882486	compromising	-0.0998469
-4.882486	compulsory	-0.1000154
-4.882486	computer	-0.08456346
-4.882486	concede	-0.1002911
-4.458794	concentrate	-0.09616235
-4.882486	concentrating	-0.1003284
-4.882486	concentration	-0.1003378
-4.458794	concept	-0.07246926
-3.582243	concern	-0.04539174
-3.395072	concerned	-0.1717661
-3.718553	concerning	-0.09964677
-3.264697	concerns	-0.1274616
-4.458794	concessions	-0.08615698
-4.0683	conciliation	-0.1491852
-4.882486	conciliations	-0.09792715
-4.458794	conclude	-0.1989908
-4.882486	concluded	-0.09961697
-4.882486	concludes	-0.09418621
-4.882486	concluding	-0.09418621
-3.80705	conclusion	-0.1577013
-4.458794	conclusions	-0.08180194
-4.882486	concomitant	-0.08789982
-4.882486	concrete	-0.08789982
-4.882486	concretely	-0.09016214
-4.458794	condemn	-0.09411752
-4.458794	condemnation	-0.08469956
-4.882486	condemned	-0.1003378
-3.32501	conditions	-0.1594461
-4.882486	condone	-0.08456346
-4.299271	conduct	-0.05231154
-4.882486	conducted	-0.097727
-4.882486	conduit	-0.09542646
-4.458794	conference	-0.08267964
-4.882486	conferred	-0.09632342
-3.80705	confidence	-0.08826566
-4.458794	confident	-0.09340267
-4.882486	confidentiality	-0.09841941
-4.882486	confine	-0.09964763
-4.458794	confirm	-0.1574095
-4.882486	confirmation	-0.09418621
-4.0683	confirmed	-0.06800251
-4.882486	confirms	-0.09418621
-3.91832	conflict	-0.1211461
-4.882486	confusing	-0.1001073
-4.299271	congratulate	-0.1640682
-4.458794	congratulated	-0.07538098
-4.882486	conjunction	-0.097727
-4.882486	conjuring	-0.09954031
-4.299271	connection	-0.07927306
-4.882486	connections	-0.09846553
-4.882486	consciousness	-0.08357822
-4.458794	consensus	-0.2056843
-4.882486	consenting	-0.09016214
-4.458794	consequence	-0.08236068
-4.458794	consequences	-0.07145616
-4.458794	consequently	-0.08121049
-3.358629	consider	-0.2005383
-4.299271	considerable	-0.1001929
-4.0683	considerably	-0.07397152
-3.478651	consideration	-0.1467571
-4.299271	considerations	-0.06543651
-3.718553	considered	-0.0781226
-3.91832	considering	-0.08499827
-4.882486	consigned	-0.09016214
-4.882486	consist	-0.1002145
-4.882486	consistency	-0.08789982
-4.0683	consistent	-0.2569881
-4.458794	consistently	-0.08788428
-4.882486	consolidate	-0.0996783
-4.458794	consolidation	-0.07753187
-4.882486	consort	-0.097727
-4.882486	consorted	-0.097727
-4.882486	constant	-0.1003284
-4.458794	constantly	-0.1002483
-4.882486	constituency	-0.08868667
-4.458794	constitute	-0.07870107
-4.882486	constitution	-0.08789982
-4.299271	constitutional	-0.0875646
-4.882486	constitutionality	-0.09418621
-4.882486	constructed	-0.08789982
-3.645072	construction	-0.1534898
-4.458794	constructive	-0.09984059
-4.882486	constructively	-0.08456346
-4.882486	consult	-0.097727
-4.882486	consultants	-0.09542646
-3.80705	consultation	-0.1935802
-4.458794	consultative	-0.1001008
-4.0683	consumer	-0.1382114
-4.0683	consumers	-0.06799302
-4.882486	consumption	-0.08456346
-4.882486	contacts	-0.097727
-4.458794	contain	-0.09565204
-4.299271	contained	-0.1630629
-4.458794	containing	-0.1000769
-4.299271	contains	-0.09661999
-4.882486	contaminated	-0.097727
-4.882486	contamination	-0.0996783
-4.882486	contemplating	-0.09646244
-3.91832	content	-0.06576362
-4.882486	contentious	-0.09990819
-4.882486	contents	-0.08456346
-4.882486	contested	-0.09149202
-4.0683	context	-0.1010933
-4.299271	continent	-0.07345679
-4.882486	continental	-0.1003378
-4.458794	continually	-0.1000243
-4.882486	continuation	-0.08868667
-3.32501	continue	-0.3821869
-4.0683	continued	-0.07880685
-4.458794	continues	-0.2055747
-4.0683	continuing	-0.1333884
-4.458794	contract	-0.08000252
-4.882486	contracts	-0.08456346
-4.882486	contractual	-0.1002605
-4.882486	contradiction	-0.08357822
-4.882486	contradictory	-0.1002451
-4.0683	contrary	-0.2323205
-4.882486	contrast	-0.08357822
-4.882486	contrasts	-0.1000767
-4.299271	contribute	-0.1635646
-4.882486	contributes	-0.08456346
-4.0683	contributing	-0.4438561
-4.0683	contribution	-0.23333
-4.882486	contributions	-0.1000154
-3.264697	control	-0.1309637
-4.882486	controlled	-0.1002145
-4.882486	controller	-0.08231281
-3.645072	controls	-0.09675185
-4.458794	controversial	-0.09982508
-4.882486	convenience	-0.08357822
-4.882486	convening	-0.08868667
-4.882486	convention	-0.09010848
-4.882486	convergence	-0.09980092
-4.882486	convey	-0.09027181
-4.882486	conveying	-0.09694093
-4.882486	convictions	-0.08456346
-4.882486	convince	-0.0997856
-4.299271	convinced	-0.3229415
-4.882486	convoluted	-0.1002758
-3.293807	cooperation	-0.1435427
-4.882486	coordinated	-0.1002911
-4.299271	coordination	-0.08413707
-4.882486	copied	-0.1003378
-4.458794	core	-0.0883969
-4.882486	cornerstones	-0.08868667
-4.882486	corollary	-0.08357822
-4.882486	corpus	-0.1003284
-4.299271	correct	-0.05986312
-4.882486	correctly	-0.09995415
-4.882486	correspond	-0.09016214
-4.882486	corresponding	-0.1003378
-4.882486	corruptibility	-0.08357822
-4.458794	corruption	-0.07308923
-4.882486	cosmopolitan	-0.1001226
-3.718553	cost	-0.07059859
-4.882486	cost-benefit	-0.1003064
-4.882486	cost-effective	-0.08789982
-4.882486	cost-effectiveness	-0.09542646
-4.882486	cost-intensive	-0.1002911
-4.882486	costing	-0.09149202
-4.882486	costly	-0.1002298
-3.527366	costs	-0.1324199
-4.882486	cotton	-0.1003217
-3.121996	could	-0.1822502
-4.882486	council	-0.08357822
-4.882486	count	-0.1003217
-4.458794	counter	-0.08385774
-4.882486	countering	-0.0998469
-4.882486	countermeasures	-0.100138
-4.882486	counterproductive	-0.08456346
-3.142756	countries	-0.09111737
-3.293807	country	-0.07776754
-4.882486	country-specific	-0.100138
-4.882486	counts	-0.09027181
-4.458794	couple	-0.2040992
-4.882486	coupled	-0.097727
-4.458794	courage	-0.2055747
-3.718553	course	-0.06527087
-4.458794	courses	-0.210839
-4.299271	court	-0.07995661
-3.645072	courts	-0.08978155
-4.299271	cover	-0.08860375
-4.0683	covered	-0.08562373
-4.882486	covering	-0.1002911
-4.882486	crack	-0.09694093
-4.882486	cracked	-0.08456346
-4.882486	crash	-0.09027181
-4.882486	crashes	-0.1003064
-3.80705	create	-0.1512838
-4.299271	created	-0.05371821
-3.91832	creates	-0.1339634
-3.718553	creating	-0.2176733
-4.299271	creation	-0.1517782
-4.882486	creative	-0.1002911
-4.458794	credibility	-0.1620576
-4.882486	credible	-0.09027181
-4.458794	credit	-0.08868083
-4.882486	crew	-0.08456346
-4.882486	crewed	-0.09926419
-4.882486	crewing	-0.1001839
-4.882486	cricket	-0.1002758
-4.882486	cries	-0.09542646
-4.0683	crime	-0.1204302
-4.882486	crimes	-0.08456346
-3.582243	criminal	-0.1804308
-4.458794	crises	-0.07411458
-3.80705	crisis	-0.09375022
-3.91832	criteria	-0.05834116
-3.91832	critical	-0.09304734
-4.882486	criticise	-0.09149202
-4.458794	criticism	-0.09588408
-4.882486	criticisms	-0.08868667
-4.458794	crop	-0.2149528
-4.458794	crops	-0.08290277
-4.882486	cross	-0.100092
-4.299271	cross-border	-0.3290158
-4.458794	cross-cutting	-0.08759375
-4.882486	crossroads	-0.09980092
-4.882486	crown	-0.08456346
-3.91832	crucial	-0.1250718
-4.882486	crude	-0.1002911
-4.882486	cry	-0.0986346
-4.882486	cubic	-0.1003378
-3.718553	cultural	-0.1411422
-3.293807	culture	-0.08642203
-4.882486	cumulatively	-0.08456346
-4.882486	cure	-0.0998469
-4.882486	currencies	-0.09027181
-3.718553	currency	-0.08118828
-4.458794	current	-0.09882023
-3.645072	currently	-0.100688
-4.882486	customary	-0.1003378
-4.882486	customer	-0.08357822
-4.458794	customers	-0.1989908
-4.458794	cut	-0.09994766
-4.882486	cuts	-0.09027181
-4.882486	cutting	-0.1001226
-4.882486	cycle	-0.1001992
-4.882486	cycles	-0.08789982
-4.299271	daily	-0.1000177
-3.80705	damage	-0.05987786
-4.882486	damaged	-0.097727
-4.299271	damaging	-0.08996761
-4.882486	dancing	-0.09027181
-4.882486	danger	-0.07145616
-3.80705	dangerous	-0.08376799
-4.882486	dangers	-0.1001226
-4.882486	daring	-0.09016214
-4.882486	dark	-0.09027181
-4.882486	darkened	-0.097727
-4.882486	darkest	-0.1003284
-4.458794	data	-0.08773559
-4.882486	database	-0.09940227
-3.91832	date	-0.1636139
-4.882486	dates	-0.0986346
-4.882486	dawn	-0.08868667
-3.582243	day	-0.03965956
-3.718553	days	-0.08638828
-4.882486	de	-0.1003378
-4.882486	de-stabilisation	-0.08456346
-4.882486	dead	-0.0998469
-4.299271	deadlines	-0.1549228
-3.527366	deal	-0.26663
-3.91832	dealing	-0.5483311
-4.882486	deals	-0.097727
-4.299271	dealt	-0.3264823
-4.458794	dear	-0.09009281
-4.299271	death	-0.1493399
-4.458794	deaths	-0.08396903
-3.142756	debate	-0.2365171
-4.458794	debated	-0.08981061
-4.882486	debating	-0.09640955
-4.458794	debt	-0.07589946
-4.882486	decade	-0.1000767
-4.458794	decades	-0.08409616
-4.458794	decent	-0.100316
-4.882486	decently	-0.09851164
-4.458794	decentralised	-0.1000702
-4.299271	decide	-0.05498001
-3.718553	decided	-0.1084069
-4.882486	deciding	-0.09149202
-3.582243	decision	-0.07737847
-4.299271	decision-makers	-0.09561452
-3.395072	decisions	-0.108435
-4.882486	decisive	-0.1002758
-4.882486	decisively	-0.08456346
-4.882486	declarations	-0.08868667
-4.882486	declaratory	-0.1003064
-4.299271	declare	-0.08388278
-4.0683	declared	-0.09932809
-4.458794	decommissioning	-0.08863284
-4.882486	decreased	-0.08357822
-4.882486	deeds	-0.08789982
-4.882486	deemed	-0.09149202
-4.882486	deepen	-0.09149202
-4.458794	deepening	-0.07589946
-4.882486	deeper	-0.09986222
-4.882486	deepest	-0.1002298
-4.458794	deeply	-0.1002913
-4.882486	defect	-0.08789982
-4.458794	defence	-0.08849129
-4.882486	defend	-0.09661917
-4.882486	defended	-0.097727
-4.882486	deficiencies	-0.08868667
-4.882486	define	-0.08789982
-4.882486	defined	-0.1002145
-4.458794	defining	-0.2069046
-4.299271	definitely	-0.08900339
-4.458794	definition	-0.08363511
-4.882486	definitive	-0.1003064
-4.299271	degree	-0.1459097
-4.299271	delay	-0.06470603
-4.882486	delayed	-0.1003217
-4.299271	delegates	-0.1384337
-4.458794	delegation	-0.07833772
-4.882486	deletes	-0.1001839
-4.882486	deleting	-0.09149202
-4.882486	deliberations	-0.08456346
-4.882486	deliberative	-0.1003378
-4.882486	delighted	-0.09016214
-4.882486	delimitation	-0.08868667
-4.458794	deliver	-0.07366844
-4.0683	delivered	-0.0791445
-4.882486	delivers	-0.09970896
-4.458794	delivery	-0.2040992
-4.882486	demagogy	-0.08357822
-3.645072	demand	-0.1090648
-4.882486	demand-orientated	-0.1001226
-4.299271	demanding	-0.0901645
-3.91832	demands	-0.07244155
-4.882486	demeaning	-0.09542646
-3.645072	democracy	-0.1218742
-3.582243	democratic	-0.08579879
-4.882486	democratically	-0.1002605
-4.882486	democratically-elected	-0.09957097
-4.882486	demonstrate	-0.09090699
-3.80705	demonstrated	-0.07711711
-4.882486	demonstrates	-0.1003378
-4.882486	demystify	-0.09947896
-4.299271	denied	-0.1564707
-4.882486	denounced	-0.09780399
-4.882486	density	-0.08357822
-4.882486	deny	-0.09418621
-4.882486	denying	-0.09149202
-4.458794	department	-0.09441245
-4.458794	departments	-0.08277528
-4.458794	depend	-0.08615698
-4.882486	dependence	-0.09632342
-4.882486	dependency	-0.08456346
-4.458794	dependent	-0.211736
-4.458794	depends	-0.08350784
-3.91832	depleted	-0.5509325
-4.882486	deplorable	-0.1003284
-4.458794	deplore	-0.09103212
-4.458794	deployed	-0.08376234
-4.882486	deployment	-0.08868667
-4.882486	deprive	-0.1002145
-4.882486	deprived	-0.1000461
-4.882486	der	-0.1003378
-4.882486	deriding	-0.09149202
-4.882486	derisory	-0.1003064
-4.458794	describe	-0.09119746
-3.80705	described	-0.1036831
-4.882486	deserve	-0.08456346
-4.458794	deserves	-0.08446148
-3.91832	design	-0.1055066
-4.0683	designed	-0.4438561
-4.299271	desirable	-0.06537016
-4.0683	desire	-0.2494691
-4.882486	desired	-0.1001686
-4.458794	desk	-0.1003007
-4.882486	desperately	-0.1002298
-4.458794	despite	-0.09078184
-4.882486	despoiled	-0.097727
-4.0683	destroyed	-0.07116406
-4.882486	destroying	-0.09149202
-4.882486	destroys	-0.1002451
-4.882486	destruction	-0.09016214
-4.458794	destructive	-0.1000855
-3.91832	detail	-0.04956274
-3.645072	detailed	-0.1001487
-4.299271	details	-0.1049086
-4.458794	detected	-0.0767338
-4.882486	detention	-0.08456346
-4.882486	determination	-0.08868667
-4.882486	determine	-0.09149202
-4.882486	determined	-0.097727
-4.882486	deterrent	-0.09632342
-4.882486	detract	-0.0986346
-4.882486	detriment	-0.08868667
-4.299271	devastating	-0.07846052
-4.882486	devastation	-0.09027181
-4.299271	develop	-0.08705661
-4.299271	developed	-0.08624513
-4.882486	developing	-0.09027181
-3.478651	development	-0.1138105
-4.882486	developmental	-0.1002605
-4.299271	developments	-0.07371726
-4.882486	develops	-0.09027181
-4.882486	deviate	-0.1003284
-4.882486	devise	-0.08357822
-4.882486	devoted	-0.1001839
-4.882486	devoured	-0.08456346
-3.527366	dialogue	-0.1193021
-4.882486	dictate	-0.1002605
-4.882486	dictates	-0.09418621
-4.882486	dictators	-0.1001686
-4.882486	dictatorship	-0.08357822
-3.395072	did	-0.1496195
-4.882486	die	-0.09989287
-4.882486	difference	-0.09980092
-4.299271	differences	-0.08043519
-3.718553	different	-0.08149063
-4.882486	differentiate	-0.09632342
-4.882486	differentiated	-0.08357822
-4.882486	differing	-0.1002145
-4.882486	differs	-0.09780399
-3.478651	difficult	-0.1858913
-3.718553	difficulties	-0.1096837
-4.458794	difficulty	-0.08121049
-4.882486	digress	-0.08456346
-4.882486	dilatory	-0.09027181
-4.458794	dimension	-0.07310532
-4.882486	diminished	-0.08789982
-4.882486	dint	-0.08868667
-4.882486	dioxin	-0.1002758
-4.882486	diplomats	-0.08789982
-4.882486	dire	-0.1003378
-4.882486	directed	-0.1003064
-4.882486	directing	-0.09149202
-3.645072	direction	-0.07723148
-3.395072	directive	-0.1688443
-4.0683	directives	-0.08705555
-3.645072	directly	-0.119243
-4.882486	directorate	-0.08357822
-4.882486	dirty	-0.1003378
-4.458794	disadvantage	-0.07246926
-4.882486	disadvantaged	-0.08789982
-4.882486	disadvantages	-0.09644044
-4.882486	disagree	-0.09418621
-4.882486	disagreed	-0.08789982
-4.0683	disagreement	-0.2125937
-4.458794	disappointed	-0.08830249
-4.882486	disapprove	-0.08868667
-4.882486	disassociated	-0.100138
-3.582243	disaster	-0.1103598
-3.645072	disasters	-0.03760941
-4.882486	disbursed	-0.08456346
-4.882486	disbursement	-0.08789982
-3.718553	discharge	-0.107679
-4.882486	discharged	-0.08357822
-4.299271	discipline	-0.1572028
-4.882486	disciplined	-0.08456346
-4.882486	disclosure	-0.08456346
-4.882486	discontent	-0.09992351
-4.882486	discontinued	-0.08357822
-4.882486	discover	-0.09027181
-4.882486	discrepancy	-0.09947896
-4.299271	discrimination	-0.08562132
-4.0683	discuss	-0.1557128
-4.0683	discussed	-0.07990848
-3.582243	discussing	-0.2167961
-3.527366	discussion	-0.07204253
-3.478651	discussions	-0.1722697
-4.299271	disgraceful	-0.06885666
-4.882486	disguised	-0.1001161
-4.882486	disgust	-0.09937159
-4.882486	dished	-0.0997856
-4.882486	disk	-0.1003378
-4.882486	dismantle	-0.1001839
-4.882486	dismantling	-0.08357822
-4.882486	disorderly	-0.09995415
-4.458794	disparities	-0.08400081
-4.882486	dispel	-0.1003284
-4.882486	dispense	-0.097727
-4.882486	dispensing	-0.097727
-4.458794	displayed	-0.1000616
-4.882486	displaying	-0.1002605
-4.882486	displays	-0.1003378
-4.0683	disposal	-0.2352287
-4.299271	disposed	-0.317442
-4.882486	disposing	-0.07589946
-4.458794	dispute	-0.09376024
-4.882486	disputed	-0.09958631
-4.458794	disputes	-0.09623962
-4.882486	disregarded	-0.08357822
-4.882486	dissatisfied	-0.097727
-4.458794	dissemination	-0.2040992
-4.882486	distanced	-0.1002298
-4.882486	distant	-0.1001686
-4.882486	distinctions	-0.08789982
-4.882486	distinctive	-0.1001226
-4.458794	distinguished	-0.1003007
-4.882486	distortion	-0.08868667
-4.458794	distortions	-0.2056843
-4.882486	distressing	-0.08789982
-4.458794	distributed	-0.0740914
-4.299271	distribution	-0.317442
-4.882486	disturbing	-0.09149202
-4.882486	diversity	-0.09970896
-4.882486	diverted	-0.09961697
-4.882486	divide	-0.09954031
-4.458794	division	-0.07833772
-4.882486	divisions	-0.08868667
-2.825289	do	-0.1955599
-4.882486	doctor	-0.08357822
-3.718553	document	-0.1225713
-4.0683	documents	-0.2403797
-2.999214	does	-0.5464283
-4.882486	dog	-0.08456346
-3.527366	doing	-0.07107292
-4.882486	dollar	-0.08357822
-4.882486	domicile	-0.1002911
-4.882486	dominate	-0.09149202
-4.882486	dominated	-0.097727
-3.645072	done	-0.07095532
-4.458794	donors	-0.08791794
-4.882486	door	-0.09027181
-4.458794	doors	-0.07589946
-4.458794	dossier	-0.08395313
-4.299271	double	-0.08081281
-4.458794	double-hulled	-0.2157409
-4.882486	doubled	-0.0986346
-4.299271	doubt	-0.1506173
-4.882486	doubted	-0.08789982
-4.458794	doubtful	-0.1001016
-4.882486	doubtless	-0.1002605
-4.882486	doubtlessly	-0.1003378
-4.882486	dovetailing	-0.08868667
-3.187512	down	-0.1411747
-4.882486	downfall	-0.08868667
-4.882486	downplaying	-0.08868667
-4.882486	dozen	-0.09841941
-3.478651	draft	-0.166399
-4.458794	drafting	-0.07959188
-4.882486	drag	-0.09954031
-4.882486	dragged	-0.0996783
-4.882486	dragging	-0.09961697
-4.458794	drains	-0.09559015
-4.882486	dramatised	-0.0996783
-4.299271	drastic	-0.1001018
-4.882486	drastically	-0.1002605
-3.91832	draw	-0.1452751
-4.299271	drawing	-0.1729751
-4.0683	drawn	-0.2486691
-4.882486	dreadful	-0.1003378
-4.882486	drew	-0.1001992
-4.882486	drill	-0.08357822
-4.882486	drink	-0.1002298
-4.299271	drinking	-0.09141707
-4.882486	drive	-0.1002145
-4.882486	driven	-0.08357822
-4.882486	drivers	-0.09886505
-4.458794	driving	-0.08352374
-4.458794	drop	-0.09981056
-4.882486	dropped	-0.09937159
-4.882486	dropping	-0.09149202
-4.882486	drought	-0.08357822
-4.882486	drowning	-0.0997856
-4.458794	drug	-0.100117
-4.882486	drugs	-0.08789982
-4.882486	dubious	-0.1003284
-3.91832	due	-0.1890246
-4.882486	dumped	-0.09981625
-4.458794	dumping	-0.07143284
-4.882486	dumps	-0.1002911
-4.458794	duration	-0.08363511
-3.32501	during	-0.8235473
-4.458794	duty	-0.09447451
-4.299271	duty-free	-0.07410853
-4.882486	dwindling	-0.1003378
-4.458794	dying	-0.1517782
-3.527366	each	-0.1480269
-3.718553	earlier	-0.1886009
-3.718553	early	-0.127655
-4.882486	ears	-0.09780399
-4.882486	earthquakes	-0.1003284
-4.882486	ease	-0.09149202
-4.299271	easier	-0.1586792
-4.882486	easiest	-0.1000614
-4.882486	easily	-0.09943295
-4.458794	easy	-0.2055747
-4.882486	eating	-0.1003378
-4.882486	echo	-0.09149202
-3.80705	ecological	-0.1498012
-4.882486	ecologically	-0.08357822
-4.882486	ecology	-0.09937159
-3.293807	economic	-0.1135565
-4.882486	economical	-0.1001226
-4.458794	economically	-0.08388954
-4.882486	economics	-0.08053814
-4.299271	economies	-0.1459097
-3.582243	economy	-0.2105348
-4.882486	education	-0.08789982
-4.882486	educational	-0.09989287
-3.395072	effect	-0.1281905
-4.882486	effecting	-0.1003217
-3.434854	effective	-0.1204865
-4.0683	effectively	-0.08758035
-4.458794	effectiveness	-0.2040992
-3.80705	effects	-0.1092132
-4.0683	efficiency	-0.03782622
-3.91832	efficient	-0.08766823
-4.882486	efficiently	-0.08456346
-4.458794	effort	-0.2055747
-3.527366	efforts	-0.1386774
-4.458794	eight	-0.09994766
-3.527366	either	-0.2454484
-4.882486	el-Sheikh	-0.08455756
-4.882486	elaboration	-0.08868667
-3.718553	elected	-0.1019959
-4.882486	electing	-0.1002911
-4.882486	election	-0.08789982
-3.80705	elections	-0.09755078
-4.882486	electoral	-0.1003217
-4.458794	electricity	-0.08789396
-4.882486	electronic	-0.1003064
-4.299271	element	-0.0606831
-4.0683	elements	-0.06787758
-4.882486	elevate	-0.1002605
-4.882486	eliminate	-0.09149202
-4.882486	eliminated	-0.1003064
-4.882486	else	-0.08789982
-4.0683	elsewhere	-0.09504107
-4.882486	elucidation	-0.097727
-4.458794	embargo	-0.06567822
-4.882486	embrace	-0.09149202
-4.882486	emerged	-0.1001686
-4.0683	emissions	-0.1354551
-4.882486	emit	-0.1002911
-4.882486	emotional	-0.1003284
-4.299271	emphasis	-0.3250787
-4.0683	emphasise	-0.06646647
-4.882486	emphasised	-0.09418621
-4.458794	emphasises	-0.08520705
-4.299271	employ	-0.09928857
-4.458794	employability	-0.1989908
-3.80705	employed	-0.08337639
-4.458794	employee	-0.09805258
-4.0683	employees	-0.08446386
-4.882486	employers	-0.09418621
-3.395072	employment	-0.212338
-4.882486	emptied	-0.09961697
-4.882486	en	-0.1003378
-4.0683	enable	-0.09043981
-4.882486	enables	-0.09149202
-4.458794	enabling	-0.09693521
-4.458794	enacting	-0.09944178
-4.458794	enactment	-0.2040992
-4.0683	encourage	-0.1261663
-4.299271	encouraged	-0.07020409
-4.882486	encouragement	-0.0986346
-4.882486	encourages	-0.1001839
-4.882486	encouraging	-0.08789982
-3.582243	end	-0.1286467
-3.718553	end-of-life	-0.453657
-4.882486	endeavour	-0.08357822
-4.882486	endeavoured	-0.09016214
-4.882486	endeavouring	-0.08357822
-4.458794	endeavours	-0.08618861
-4.882486	ended	-0.097727
-4.882486	ending	-0.09954031
-4.882486	endless	-0.1003378
-4.882486	endlessly	-0.08357822
-4.299271	endorse	-0.09596372
-4.882486	endorsed	-0.09149202
-4.882486	ends	-0.08789982
-4.882486	endure	-0.09989287
-4.882486	enemy	-0.09027181
-4.882486	energies	-0.07063742
-3.527366	energy	-0.09544872
-4.882486	energy-saving	-0.08456346
-4.882486	enforce	-0.09149202
-4.458794	enforceable	-0.1001323
-4.458794	enforced	-0.09661031
-4.0683	enforcement	-0.1263469
-4.882486	engage	-0.09027181
-4.0683	engaged	-0.4439658
-4.882486	enhance	-0.1003378
-4.299271	enhanced	-0.09960395
-4.882486	enjoy	-0.09942645
-4.882486	enjoyed	-0.08456346
-4.299271	enlarged	-0.1725447
-3.527366	enlargement	-0.1061671
-4.882486	enlightenment	-0.08868667
-3.80705	enormous	-0.1001138
-3.434854	enough	-0.1071366
-4.882486	enquiries	-0.08357822
-4.882486	enshrined	-0.09780399
-4.882486	ensue	-0.09947896
-3.91832	ensure	-0.1023742
-4.882486	ensures	-0.09418621
-4.0683	ensuring	-0.4478802
-4.882486	entailed	-0.09149202
-4.882486	entails	-0.09969363
-4.882486	enter	-0.0996783
-4.0683	entered	-0.2555998
-4.882486	entering	-0.09149202
-4.882486	enterprise	-0.1003284
-3.582243	enterprises	-0.1028714
-4.882486	enthusiasm	-0.09841941
-4.882486	enthusiastically	-0.09983157
-3.91832	entire	-0.09924068
-3.91832	entirely	-0.09709117
-4.882486	entities	-0.08789982
-4.458794	entity	-0.07165243
-4.882486	entrepreneur	-0.09964763
-4.882486	entrepreneurial	-0.1002911
-4.882486	entrepreneurship	-0.07063742
-4.0683	entry	-0.2026278
-4.882486	envelope	-0.0994943
-3.91832	environment	-0.07626987
-3.142756	environmental	-0.153274
-4.458794	environmentally	-0.08357231
-4.882486	environmentally-friendly	-0.1003217
-4.458794	envisage	-0.2095987
-4.882486	envoy	-0.09542646
-4.882486	envoys	-0.08269558
-4.0683	equal	-0.09884863
-4.458794	equality	-0.08786163
-3.91832	equally	-0.1176856
-4.882486	equals	-0.09981625
-4.458794	equation	-0.06716524
-4.882486	equip	-0.09149202
-4.882486	equipment	-0.1002298
-4.458794	equipped	-0.2055747
-4.882486	erstwhile	-0.09998479
-4.458794	escape	-0.09148622
-4.0683	especially	-0.07854956
-3.718553	essential	-0.102709
-4.882486	essentially	-0.09694093
-4.299271	establish	-0.1125565
-4.458794	established	-0.08678911
-4.299271	establishing	-0.1298554
-4.458794	establishment	-0.2040992
-4.882486	esteemed	-0.1003217
-4.882486	estimate	-0.08456346
-4.882486	etc.	-0.08789982
-4.882486	ethnic	-0.1003217
-4.458794	euro	-0.08089966
-4.882486	evaded	-0.08357822
-4.882486	evaluate	-0.09149202
-3.264697	even	-0.1804638
-4.458794	evening	-0.06982657
-4.882486	event	-0.08675753
-3.80705	events	-0.09564844
-4.882486	eventually	-0.1002911
-3.645072	ever	-0.09483054
-3.121996	every	-0.141248
-4.882486	everyday	-0.1002605
-4.458794	everyone	-0.08122889
-3.582243	everything	-0.1394727
-4.882486	everywhere	-0.09027181
-4.299271	evidence	-0.05993032
-4.882486	evident	-0.09016214
-4.882486	evil	-0.09825025
-4.882486	evils	-0.09027181
-4.882486	evolved	-0.1002605
-4.882486	ewes	-0.0996783
-4.458794	ex	-0.2157503
-4.882486	exact	-0.1003064
-3.80705	exactly	-0.1603356
-4.882486	exaggeration	-0.08868667
-4.458794	examination	-0.2040992
-4.299271	examine	-0.06737544
-4.458794	examining	-0.09109467
-3.718553	example	-0.1393081
-3.80705	excellent	-0.1387311
-4.882486	except	-0.09418621
-4.458794	exception	-0.09864345
-4.882486	exceptions	-0.09027181
-4.882486	excesses	-0.08868667
-4.882486	excessive	-0.1002758
-4.458794	exchange	-0.08827578
-4.882486	exclude	-0.09149202
-4.882486	excluded	-0.08456346
-4.882486	excludes	-0.09149202
-4.299271	exclusion	-0.09269558
-4.0683	exclusively	-0.08898101
-4.882486	executable	-0.09995415
-4.882486	executed	-0.09149202
-4.458794	executive	-0.08781437
-4.458794	exemplary	-0.1002913
-4.882486	exempted	-0.09977027
-4.882486	exemption	-0.08157825
-4.458794	exemptions	-0.06716524
-3.718553	exercise	-0.05728734
-4.882486	exert	-0.1000308
-4.882486	exhaust	-0.1003064
-4.0683	existing	-0.09962472
-4.882486	exists	-0.08456346
-4.882486	exit	-0.1003378
-4.882486	expand	-0.1002145
-4.882486	expatriation	-0.1003378
-3.91832	expect	-0.1553679
-4.882486	expectation	-0.1002605
-4.299271	expectations	-0.07943371
-4.299271	expected	-0.08081961
-4.458794	expecting	-0.09861272
-4.458794	expeditiously	-0.08184986
-4.882486	expended	-0.09027181
-4.0683	expenditure	-0.120364
-4.882486	expense	-0.08456346
-4.0683	experience	-0.08387687
-4.458794	experienced	-0.08738878
-4.882486	experiences	-0.0996783
-4.882486	experiencing	-0.09694093
-4.882486	expert	-0.1003064
-4.882486	expertise	-0.08357822
-3.80705	experts	-0.05954401
-4.882486	expire	-0.1003284
-4.882486	expired	-0.08456346
-4.458794	expires	-0.1989908
-4.882486	expiry	-0.08868667
-4.458794	explain	-0.07881368
-4.458794	explained	-0.08121049
-4.882486	explaining	-0.08789982
-4.882486	explains	-0.09016214
-4.458794	explanation	-0.2040992
-4.458794	explicit	-0.1001556
-4.299271	explicitly	-0.09008614
-4.882486	exploit	-0.1000154
-4.882486	explored	-0.09027181
-4.882486	explosions	-0.08789982
-4.882486	exponential	-0.1002911
-4.882486	exposed	-0.09016214
-4.882486	exposing	-0.09149202
-4.882486	expound	-0.09149202
-4.299271	express	-0.1349205
-3.80705	expressed	-0.1670842
-4.299271	expressing	-0.09874468
-4.458794	expression	-0.08836544
-4.882486	expressly	-0.1002911
-4.882486	expulsion	-0.1003064
-4.882486	extant	-0.1000154
-4.299271	extend	-0.09588065
-4.458794	extended	-0.1000089
-4.458794	extending	-0.09100084
-4.0683	extension	-0.3344643
-4.882486	extensive	-0.1000308
-4.882486	extensively	-0.09016214
-3.582243	extent	-0.1962352
-4.458794	external	-0.09987776
-4.882486	extinguishers	-0.1003284
-4.882486	extra	-0.1003217
-4.882486	extraordinary	-0.09958631
-4.458794	extreme	-0.156996
-3.645072	extremely	-0.1165744
-4.882486	extremism	-0.08456346
-4.882486	extremists	-0.08789982
-4.299271	eye	-0.06972804
-4.882486	eyes	-0.08456346
-3.645072	face	-0.06408881
-4.458794	faced	-0.2131395
-4.882486	faceless	-0.1002911
-4.458794	faces	-0.08901007
-4.882486	facie	-0.09016214
-4.882486	facilitate	-0.09131352
-4.882486	facing	-0.09149202
-3.80705	fact	-0.1350817
-4.458794	fact-finding	-0.2157342
-4.299271	factor	-0.1597398
-4.882486	factory-style	-0.1002298
-3.91832	facts	-0.2806199
-3.80705	fail	-0.6199474
-3.80705	failed	-0.1452916
-4.299271	failing	-0.1532892
-4.882486	failings	-0.09027181
-4.882486	fails	-0.09016214
-4.299271	failure	-0.1630629
-4.299271	fair	-0.1630942
-4.882486	fairer	-0.08789982
-4.882486	fairly	-0.1003217
-4.882486	fairness	-0.08357822
-4.458794	faith	-0.08376234
-4.0683	fall	-0.1751363
-4.882486	fallen	-0.1003217
-4.882486	falling	-0.08456346
-3.80705	falls	-0.2031056
-4.882486	false	-0.1003217
-4.882486	familiar	-0.097727
-4.882486	familiarity	-0.097727
-4.882486	families	-0.08789982
-4.458794	family	-0.2157503
-4.882486	famine	-0.08789982
-4.882486	fanciful	-0.09027181
-3.527366	far	-0.09401215
-4.882486	far-reaching	-0.1002298
-4.882486	faring	-0.08456346
-4.882486	farmer	-0.1001226
-4.0683	farmers	-0.09756877
-4.882486	farming	-0.07846652
-4.882486	farms	-0.08357822
-4.882486	fascist	-0.1003378
-4.458794	fascistic	-0.09947327
-4.882486	faster	-0.1002451
-4.882486	fat	-0.1003378
-4.882486	fate	-0.08868667
-4.882486	fatigue	-0.08456346
-4.458794	fault	-0.08860139
-4.299271	favour	-0.06300815
-4.882486	favourable	-0.1003284
-4.882486	favours	-0.09958631
-3.80705	fear	-0.1034372
-4.882486	feared	-0.097727
-4.458794	fears	-0.07817667
-4.299271	feasible	-0.07049931
-4.882486	feature	-0.08868667
-4.882486	features	-0.1003378
-4.882486	fed	-0.09954031
-4.882486	federal	-0.1001226
-4.299271	feed	-0.1018841
-4.882486	feeding	-0.1003378
-4.882486	feeds	-0.09632342
-3.80705	feel	-0.2228878
-4.458794	feels	-0.1001075
-4.299271	feet	-0.08459086
-4.458794	fell	-0.08830249
-4.299271	fellow	-0.1541139
-4.882486	fellow-travelling	-0.1003378
-4.458794	felt	-0.09228139
-4.882486	fertile	-0.1002911
-3.718553	few	-0.1961233
-4.882486	fibres	-0.09418621
-3.80705	field	-0.1681459
-3.91832	fields	-0.2522853
-4.882486	fifth	-0.1001535
-4.882486	fifty-fifty	-0.09980092
-3.91832	fight	-0.1241667
-4.458794	fighting	-0.09531151
-4.882486	figure	-0.09832715
-4.0683	figures	-0.05994712
-4.882486	fill	-0.08456346
-4.458794	filled	-0.08520705
-4.882486	films	-0.08789982
-3.718553	final	-0.09887452
-4.882486	finalisation	-0.08868667
-3.527366	finally	-0.07992424
-4.882486	finance	-0.09772047
-4.458794	financed	-0.09617123
-4.882486	finances	-0.1002145
-3.065081	financial	-0.2122635
-4.299271	financially	-0.0987242
-3.80705	financing	-0.05904159
-3.645072	find	-0.1104865
-4.882486	finding	-0.09149202
-4.299271	findings	-0.1209262
-4.458794	fine	-0.100208
-4.882486	finished	-0.08456346
-4.299271	fire	-0.1002799
-4.458794	firm	-0.09007713
-4.458794	firmly	-0.08591969
-3.264697	first	-0.07961842
-4.882486	first-class	-0.1002758
-4.458794	firstly	-0.0787586
-4.458794	fiscal	-0.1001161
-4.882486	fish	-0.1003378
-4.882486	fishermen	-0.1003284
-4.458794	fit	-0.07411458
-3.718553	five	-0.1601232
-4.458794	five-year	-0.0999783
-4.882486	fixed	-0.1002758
-4.0683	flag	-0.09039283
-4.882486	flag-of-convenience	-0.1003064
-4.458794	flags	-0.08771984
-4.882486	flatly	-0.09961697
-4.882486	flattened	-0.1002451
-4.458794	fleet	-0.06716524
-3.91832	flexibility	-0.1172283
-3.91832	flexible	-0.1014042
-4.458794	flies	-0.08987334
-4.882486	flooded	-0.1003378
-4.882486	floods	-0.09027181
-4.458794	floor	-0.05984377
-4.882486	flout	-0.09149202
-4.882486	flow	-0.09989287
-4.882486	flowers	-0.1003378
-4.882486	fluctuations	-0.08456346
-4.882486	flurry	-0.08868667
-4.458794	flying	-0.0824564
-4.882486	focal	-0.1001839
-4.882486	focus	-0.09632342
-4.0683	focused	-0.2551205
-4.882486	focuses	-0.09632342
-4.458794	focusing	-0.09630819
-4.882486	focussed	-0.09632342
-4.882486	foisted	-0.09632342
-4.882486	folklore	-0.08456346
-4.458794	follow	-0.08375798
-3.645072	follow-up	-0.1732402
-4.458794	followed	-0.09386902
-3.718553	following	-0.1166103
-4.299271	follows	-0.07468659
-3.645072	food	-0.1194015
-4.882486	fooled	-0.097727
-4.882486	foot	-0.09149202
-1.948537	for	-0.2799213
-4.882486	forbids	-0.1000614
-3.718553	force	-0.04888444
-4.458794	forced	-0.2150908
-4.882486	forcefully	-0.1002758
-4.458794	forces	-0.09921165
-4.882486	forefront	-0.07246926
-3.645072	foreign	-0.2804164
-4.882486	foreigners	-0.08789982
-4.882486	foremost	-0.09903396
-4.882486	forerunner	-0.1000308
-4.882486	forest	-0.08456346
-4.458794	forestry	-0.1000798
-4.299271	forests	-0.05188368
-4.458794	forever	-0.08913574
-4.458794	forget	-0.07717682
-4.882486	forgetting	-0.09149202
-4.882486	forgive	-0.1000614
-3.582243	form	-0.247284
-4.882486	formal	-0.1003378
-4.458794	formally	-0.08675753
-4.882486	formation	-0.08868667
-4.299271	formed	-0.0871139
-3.80705	former	-0.09937324
-4.458794	forming	-0.0913604
-4.299271	forms	-0.1530324
-4.882486	formulate	-0.09938693
-4.882486	forth	-0.08357822
-4.882486	forthcoming	-0.1002387
-4.882486	forthwith	-0.08456346
-4.882486	fortunes	-0.09832715
-4.458794	forum	-0.09509467
-3.527366	forward	-0.05441948
-4.882486	forward-looking	-0.1000614
-4.882486	forwards	-0.08357822
-4.882486	fossil	-0.1003378
-4.882486	fought	-0.09542646
-3.80705	found	-0.07134048
-4.458794	foundation	-0.07946341
-4.458794	founded	-0.211736
-3.582243	four	-0.1097068
-4.882486	fours	-0.097727
-4.458794	fourteen	-0.08811361
-4.882486	fracture	-0.09027181
-4.299271	fragility	-0.07433525
-4.882486	frame	-0.09846553
-4.0683	framework	-0.09078454
-4.882486	fraternal	-0.1003378
-4.882486	fraternity	-0.08357822
-3.582243	fraud	-0.110703
-3.91832	free	-0.09592068
-3.395072	freedom	-0.2157259
-4.882486	freedoms	-0.09792715
-4.882486	freely	-0.1003284
-4.882486	frenzies	-0.09846553
-4.458794	frequently	-0.07816982
-4.882486	fret	-0.09937159
-4.458794	friend	-0.07741892
-4.882486	friendship	-0.08789982
-2.405925	from	-0.2532876
-4.882486	front	-0.1003378
-4.882486	frustration	-0.097727
-4.882486	fuels	-0.09832715
-4.458794	fulfil	-0.08935559
-4.882486	fulfilled	-0.08789982
-4.882486	fulfilling	-0.0996783
-4.882486	fulfilment	-0.08868667
-4.882486	fulfils	-0.09935625
-3.434854	full	-0.08737388
-3.434854	fully	-0.08979504
-4.882486	fun	-0.09937159
-3.80705	function	-0.08577232
-3.91832	functioning	-0.09414888
-4.882486	fund	-0.09016214
-4.882486	fund-users	-0.08789982
-3.80705	fundamental	-0.1024679
-4.882486	fundamentally	-0.09841941
-4.882486	funded	-0.1001073
-3.80705	funding	-0.09610961
-3.645072	funds	-0.1184139
-4.882486	furiously	-0.08357822
-3.478651	further	-0.07933947
-4.882486	furthering	-0.100092
-3.395072	future	-0.1038017
-4.882486	futures	-0.08789982
-4.882486	gain	-0.08801913
-4.458794	gained	-0.06716524
-4.882486	gainful	-0.1001686
-4.882486	galvanise	-0.09970896
-4.299271	gap	-0.1509723
-4.458794	gas	-0.1003007
-4.882486	gases	-0.06893894
-3.80705	gave	-0.08507828
-4.0683	gender	-0.08344679
-4.299271	general	-0.07427515
-4.299271	generally	-0.08983531
-4.882486	generated	-0.09825025
-4.882486	generates	-0.1003378
-4.882486	generosity	-0.09903396
-4.882486	genetically	-0.1003378
-4.299271	gentlemen	-0.0627005
-4.882486	genuine	-0.1003064
-4.299271	genuinely	-0.09978871
-4.458794	geographical	-0.0988499
-3.91832	get	-0.08697012
-4.882486	gets	-0.09632342
-4.458794	getting	-0.2154739
-4.882486	gift	-0.09016214
-3.582243	give	-0.1265862
-3.434854	given	-0.1825268
-4.0683	gives	-0.2508155
-3.718553	giving	-0.1467576
-4.458794	glad	-0.08385774
-4.882486	glasshouses	-0.09912606
-3.80705	global	-0.0996462
-4.458794	globalisation	-0.07165243
-4.882486	globally	-0.1002451
-4.882486	globe	-0.08456346
-4.882486	glory	-0.09027181
-3.395072	go	-0.1517038
-4.882486	go-ahead	-0.08456346
-4.0683	goal	-0.1073575
-4.458794	goals	-0.07411458
-3.582243	goes	-0.1652089
-3.395072	going	-0.2727428
-4.882486	gone	-0.097727
-3.237416	good	-0.101591
-4.882486	good-tempered	-0.09955564
-4.0683	goods	-0.1248727
-4.458794	got	-0.08885293
-4.882486	governability	-0.09027181
-4.882486	governed	-0.097727
-3.293807	government	-0.1849992
-3.527366	governments	-0.1227364
-4.882486	grade	-0.08456346
-4.882486	grand	-0.1003217
-4.882486	grandiose-sounding	-0.1003064
-4.299271	grant	-0.1531195
-4.882486	grant-giving	-0.1000461
-3.718553	granted	-0.1081972
-4.458794	granting	-0.1002854
-4.299271	grants	-0.1612549
-4.458794	grateful	-0.08279122
-4.882486	gratitude	-0.09016214
-4.882486	grave	-0.08789982
-4.882486	gravest	-0.1003064
-3.527366	great	-0.1534594
-3.582243	greater	-0.1226526
-4.458794	greatest	-0.08856994
-4.882486	greatly	-0.09016214
-3.91832	greenhouse	-0.222592
-4.882486	greeting	-0.08357822
-4.882486	grief	-0.09961697
-4.882486	grips	-0.097727
-4.882486	gross	-0.1003378
-3.91832	ground	-0.1125754
-4.882486	ground-breaking	-0.08456346
-4.458794	grounds	-0.08363511
-3.80705	group	-0.2215826
-3.80705	groups	-0.06062109
-4.882486	grow	-0.09995415
-3.91832	growing	-0.09966759
-4.882486	grown	-0.1003378
-3.91832	growth	-0.1204712
-4.0683	guarantee	-0.2097159
-4.882486	guaranteed	-0.09993883
-4.882486	guaranteeing	-0.09149202
-4.299271	guarantees	-0.05272143
-4.882486	guard	-0.09977027
-4.458794	guardian	-0.2040992
-4.458794	guidance	-0.07299123
-4.882486	guide	-0.08456346
-4.882486	guideline	-0.08357822
-3.527366	guidelines	-0.07832207
-4.458794	guilt	-0.08449323
-4.882486	guns	-0.08357822
-4.882486	habit	-0.08868667
-4.882486	habitats	-0.0996783
-3.083237	had	-0.1903182
-4.299271	half	-0.07122282
-4.882486	halfway	-0.09632342
-4.882486	hamburgers	-0.08357822
-4.458794	hamper	-0.09018683
-4.882486	hampered	-0.097727
-4.882486	hampering	-0.09149202
-3.91832	hand	-0.07466932
-4.882486	hand-out	-0.0992335
-4.882486	hand-up	-0.0998469
-4.458794	handled	-0.09528054
-4.882486	handouts	-0.0986346
-4.458794	hands	-0.05788311
-4.882486	hanging	-0.1003217
-3.80705	happen	-0.1409933
-4.458794	happened	-0.09937181
-4.458794	happening	-0.08688623
-4.299271	happens	-0.1347193
-4.882486	happiness	-0.08456346
-3.91832	happy	-0.1288763
-3.80705	hard	-0.08060874
-4.458794	hard-working	-0.2033124
-4.299271	harder	-0.07712151
-4.882486	hardly	-0.09906466
-4.882486	harm	-0.09969363
-4.882486	harmful	-0.1001686
-4.882486	harmonious	-0.08789982
-3.91832	harmonisation	-0.06093711
-2.379464	has	-0.2301752
-4.458794	haste	-0.06716524
-4.882486	hasten	-0.09961697
-4.882486	hatreds	-0.08789982
-2.434103	have	-0.2067088
-4.882486	havens	-0.09792715
-3.293807	having	-0.1442713
-4.882486	hazardous	-0.1003378
-3.264697	he	-0.2108755
-4.458794	head	-0.08363511
-4.458794	heads	-0.2040992
-3.80705	health	-0.1044331
-4.882486	healthcare	-0.09986222
-3.91832	hear	-0.09773231
-4.0683	heard	-0.08131013
-4.882486	hearing	-0.09027181
-4.458794	hearings	-0.1633922
-4.882486	hears	-0.09995415
-4.299271	heart	-0.07166183
-4.882486	heartily	-0.1001629
-4.882486	heaven	-0.09926419
-4.458794	heavily	-0.211736
-4.882486	heavy	-0.1002298
-4.882486	heed	-0.09149202
-4.882486	heightened	-0.1003378
-4.299271	held	-0.1308637
-4.882486	hell	-0.1003064
-3.434854	help	-0.1503719
-4.458794	helped	-0.07984869
-4.0683	helping	-0.08019717
-4.458794	hence	-0.09442797
-3.434854	her	-0.1123634
-2.701438	here	-0.2996796
-4.882486	hereby	-0.1003284
-4.458794	heritage	-0.06507143
-4.882486	hesitate	-0.09016214
-4.882486	hexavalent	-0.1003378
-4.882486	hidden	-0.09970896
-4.882486	hierarchical	-0.1002605
-3.395072	high	-0.07941848
-4.299271	higher	-0.09010264
-4.882486	highest	-0.1001688
-4.882486	highest-quality	-0.1003217
-4.882486	highlight	-0.09069693
-3.91832	highly	-0.1001937
-3.527366	him	-0.1104152
-4.458794	himself	-0.09999362
-2.984198	his	-0.125658
-4.882486	his/her	-0.1003217
-4.0683	historic	-0.1000026
-4.458794	histories	-0.08618861
-4.0683	history	-0.02902036
-4.458794	hit	-0.09568299
-4.0683	hitherto	-0.138393
-4.882486	hoarse	-0.09981625
-4.882486	hoc	-0.1003378
-4.299271	hold	-0.07501726
-4.882486	holder	-0.08789982
-4.458794	holding	-0.09613144
-3.80705	holds	-0.08776301
-4.882486	hole	-0.08357822
-4.882486	holiday	-0.08456346
-4.458794	holidaymakers	-0.2137243
-4.882486	hollowness	-0.08868667
-4.882486	holocaust	-0.06716524
-3.91832	home	-0.06942782
-4.882486	home-grown	-0.1000461
-4.299271	homelessness	-0.3166551
-4.882486	homes	-0.08789982
-4.299271	honest	-0.09959023
-3.91832	honour	-0.2062475
-4.0683	honourable	-0.3558037
-4.882486	honoured	-0.097727
-3.478651	hope	-0.3794509
-4.882486	hopefully	-0.09943295
-4.882486	hordes	-0.08868667
-4.882486	hormone-treated	-0.1002911
-4.882486	horrors	-0.08868667
-4.458794	hospital	-0.08952824
-4.882486	hostage	-0.09016214
-4.458794	hour	-0.070696
-3.80705	hours	-0.1159277
-4.458794	house	-0.07984869
-4.882486	housing	-0.08789982
-3.047654	how	-0.1954656
-4.0683	however	-0.1044448
-3.91832	huge	-0.08315735
-4.882486	hull	-0.1002451
-3.264697	human	-0.3482815
-4.882486	humanity	-0.09027181
-4.882486	humility	-0.09016214
-4.458794	hundred	-0.2154586
-4.882486	hundreds	-0.08868667
-4.0683	hurdles	-0.1447527
-4.299271	hypocrisy	-0.07588347
-4.299271	i.e.	-0.1061398
-3.80705	idea	-0.1304898
-4.0683	ideas	-0.07323813
-4.882486	identified	-0.06442349
-4.458794	identify	-0.07181859
-4.882486	identifying	-0.1002145
-4.882486	identity	-0.06716524
-4.882486	ideologically	-0.1003284
-4.882486	ideologue	-0.08456346
-4.882486	ideology	-0.08357822
-2.758964	if	-0.350326
-4.299271	ignorance	-0.08645973
-4.882486	ignorant	-0.09780399
-4.882486	ignored	-0.08030697
-4.882486	ignores	-0.09947896
-4.882486	ill	-0.08456346
-4.882486	ill-considered	-0.08357822
-4.299271	illegal	-0.1733575
-4.458794	illegality	-0.2033124
-4.882486	illness	-0.09886505
-4.882486	ills	-0.09418621
-4.882486	illustrated	-0.09027181
-4.458794	image	-0.08414383
-4.882486	imaginative	-0.1003064
-4.882486	imbalance	-0.09980092
-4.458794	immediate	-0.1000484
-3.80705	immediately	-0.06964143
-4.882486	immensely	-0.09027181
-4.882486	immigration	-0.08357822
-4.882486	immoral	-0.09016214
-3.91832	impact	-0.1415984
-4.882486	impacts	-0.09632342
-4.882486	impair	-0.09149202
-4.458794	imperative	-0.08770408
-4.882486	impetus	-0.09542646
-4.0683	implement	-0.1166108
-3.718553	implementation	-0.117661
-4.299271	implemented	-0.06790717
-3.80705	implementing	-0.09862293
-4.0683	implications	-0.1386211
-4.882486	imponderables	-0.09418621
-3.478651	importance	-0.181151
-3.065081	important	-0.07206908
-4.299271	importantly	-0.1350874
-4.882486	imports	-0.08456346
-4.458794	impose	-0.09643409
-4.882486	imposed	-0.09694093
-4.299271	impossible	-0.1585683
-4.0683	impracticable	-0.04027367
-4.882486	impressed	-0.097727
-4.882486	impression	-0.07717682
-4.882486	impressive	-0.1003378
-4.882486	impressively	-0.1003217
-3.718553	improve	-0.08759344
-3.91832	improved	-0.08312142
-4.299271	improvement	-0.1595975
-4.299271	improvements	-0.1509723
-4.882486	improving	-0.09149202
-1.639708	in	-0.4282436
-4.458794	in-house	-0.09915026
-4.882486	inaccurate	-0.08456346
-4.882486	inactivity	-0.09632342
-4.299271	inadequate	-0.09934322
-4.882486	inadmissibility	-0.08456346
-4.0683	inappropriate	-0.1333242
-4.882486	incentive	-0.09542646
-3.91832	incentives	-0.1973155
-4.882486	incentivise	-0.09149202
-4.299271	incident	-0.06838861
-4.882486	incidentally	-0.08357822
-4.882486	incineration	-0.08868667
-4.458794	inclination	-0.2055747
-3.645072	include	-0.1100978
-4.882486	included	-0.07308209
-4.299271	includes	-0.08397382
-3.91832	including	-0.1223033
-4.882486	inclusion	-0.08868667
-4.299271	income	-0.08591296
-4.882486	incoming	-0.09998479
-4.882486	incompetence	-0.08357822
-4.882486	inconvenience	-0.08868667
-4.882486	incorporate	-0.1002145
-4.458794	incorporated	-0.08878338
-4.882486	incorporates	-0.1003217
-3.80705	increase	-0.1402942
-3.80705	increased	-0.08170412
-4.458794	increasing	-0.09132914
-4.458794	increasingly	-0.09025636
-4.882486	incumbent	-0.1002605
-4.458794	indebted	-0.0888215
-3.80705	indeed	-0.05166502
-4.299271	indefinitely	-0.07254392
-3.80705	independence	-0.0894355
-3.718553	independent	-0.1290116
-4.882486	indicated	-0.100138
-4.882486	indicates	-0.09149202
-4.882486	indication	-0.09418621
-4.299271	indications	-0.1602454
-4.882486	indicative	-0.08789982
-4.882486	indicators	-0.09027181
-4.458794	indirectly	-0.08184986
-4.882486	indispensable	-0.09937159
-3.645072	individual	-0.06596032
-4.882486	individuality	-0.08357822
-4.0683	individuals	-0.08202115
-4.882486	induction	-0.1003284
-4.882486	indulgence	-0.08456346
-4.299271	industrial	-0.09985591
-3.91832	industries	-0.05959421
-3.264697	industry	-0.2143299
-4.882486	ineffective	-0.09886505
-4.882486	inefficient	-0.1001073
-4.882486	inequalities	-0.09027181
-4.882486	inevitable	-0.08357822
-4.882486	inevitably	-0.09943295
-4.882486	infected	-0.1002758
-4.882486	infectivity	-0.09027181
-4.882486	inferior	-0.09016214
-4.882486	infinitum	-0.08456346
-4.882486	inflammatory	-0.08789982
-4.882486	inflation	-0.08868667
-4.299271	influence	-0.08077157
-4.882486	inform	-0.09057837
-4.882486	informal	-0.1001686
-3.237416	information	-0.1872119
-4.458794	informed	-0.2146767
-4.882486	infrastructural	-0.1001839
-3.91832	infrastructure	-0.1128708
-4.882486	infringe	-0.09149202
-4.882486	infringement	-0.08868667
-4.882486	ingredient	-0.09027181
-4.882486	inhaled	-0.08789982
-4.882486	inherent	-0.09027181
-4.882486	initial	-0.1002298
-4.882486	initially	-0.097727
-4.882486	initiate	-0.09662575
-3.718553	initiative	-0.08618029
-3.91832	initiatives	-0.05148262
-4.882486	initiators	-0.08868667
-4.882486	inject	-0.09694093
-4.458794	innovation	-0.07411458
-4.458794	innovative	-0.1001161
-4.299271	input	-0.3284336
-4.882486	inputs	-0.08789982
-4.882486	inquiry	-0.1003064
-4.882486	inquisitorial	-0.1003064
-4.882486	ins	-0.08789982
-4.458794	inside	-0.0990428
-4.882486	insist	-0.09632342
-4.458794	insisting	-0.2095987
-4.882486	insofar	-0.09780399
-4.299271	inspection	-0.08049928
-4.882486	inspector	-0.09990819
-4.882486	inspiration	-0.0986346
-4.299271	instability	-0.07728295
-4.882486	installation	-0.08868667
-4.0683	instance	-0.07780987
-4.299271	instead	-0.08798094
-4.882486	institutes	-0.1001839
-4.0683	institution	-0.07518883
-4.299271	institutional	-0.1000951
-3.395072	institutions	-0.2040829
-4.458794	instructions	-0.09668749
-4.882486	instructive	-0.09027181
-3.645072	instrument	-0.05587494
-4.882486	instrumental	-0.09027181
-4.299271	instruments	-0.08750822
-4.882486	insult	-0.09016214
-4.882486	insupportable	-0.1001533
-3.80705	insurance	-0.09881079
-4.882486	integral	-0.1000614
-4.882486	integrate	-0.09965647
-4.458794	integrated	-0.2150908
-4.458794	integration	-0.07116406
-4.458794	integrity	-0.07063742
-4.882486	intelligent	-0.1002758
-4.458794	intend	-0.2055747
-4.0683	intended	-0.2485121
-4.882486	intending	-0.09016214
-4.458794	intends	-0.2055747
-4.882486	intensifying	-0.09825025
-4.882486	intent	-0.08456346
-3.718553	intention	-0.138583
-4.458794	intentions	-0.09915026
-4.882486	inter-service	-0.1002758
-4.882486	interaction	-0.09841941
-3.527366	interest	-0.1639566
-4.299271	interested	-0.3190271
-4.299271	interesting	-0.08955295
-3.582243	interests	-0.1863022
-4.882486	interfere	-0.097727
-4.458794	interference	-0.2040992
-4.882486	interfering	-0.09027181
-4.882486	intergovernmental	-0.1000767
-4.882486	intergroup	-0.1001686
-3.80705	interim	-0.1346235
-3.478651	internal	-0.1923133
-3.718553	international	-0.1144428
-4.458794	internationally	-0.08246556
-4.882486	interpretation	-0.08868667
-4.458794	interpreted	-0.08528629
-4.882486	interservice	-0.1002758
-4.882486	intervals	-0.09542646
-4.458794	intervene	-0.07411458
-4.458794	intervention	-0.07411458
-4.882486	interventions	-0.09874216
-4.882486	intimately	-0.1003217
-2.815171	into	-0.2904207
-4.882486	intolerable	-0.09418621
-4.882486	intra-Community	-0.1002758
-4.882486	intrinsically	-0.1001533
-4.458794	introduce	-0.08664934
-3.91832	introduced	-0.1338816
-4.882486	introducing	-0.1002605
-4.299271	introduction	-0.1516655
-4.882486	invaluable	-0.1003378
-4.882486	invented	-0.09926419
-4.882486	invest	-0.09027181
-4.882486	invested	-0.1000461
-4.882486	investigate	-0.1003217
-4.458794	investigated	-0.0844456
-4.299271	investigations	-0.07969743
-4.458794	investigative	-0.09993234
-4.882486	investigatory	-0.1002605
-3.80705	investment	-0.07077348
-3.80705	investments	-0.1056396
-4.882486	investor	-0.1002758
-4.882486	invisible	-0.09969363
-4.458794	invite	-0.2069046
-4.882486	invites	-0.1003217
-4.299271	involve	-0.0905404
-3.358629	involved	-0.5406042
-3.91832	involvement	-0.1050423
-4.0683	involving	-0.09087888
-4.882486	iron	-0.08789982
-4.882486	irony	-0.08456346
-4.882486	irrational	-0.09886505
-4.882486	irrationality	-0.08868667
-4.299271	irregularities	-0.08174722
-4.458794	irrelevant	-0.1989908
-4.882486	irrespective	-0.08868667
-4.458794	irresponsible	-0.07246926
-2.050774	is	-0.1728068
-4.882486	isolate	-0.09149202
-4.882486	isolating	-0.0997856
-4.0683	isolation	-0.05815309
-3.164557	issue	-0.1491289
-4.882486	issued	-0.06716524
-3.187512	issues	-0.1116042
-4.882486	issuing	-0.1003064
-2.318013	it	-0.2665858
-4.299271	item	-0.08291517
-2.815171	its	-0.1440873
-3.434854	itself	-0.1050633
-4.882486	je	-0.1003378
-4.458794	jeopardise	-0.09137603
-4.882486	jeopardises	-0.09149202
-4.882486	jeopardy	-0.0992335
-4.882486	jest	-0.08456346
-4.882486	jewels	-0.09027181
-3.80705	job	-0.08894164
-3.434854	jobs	-0.04697257
-4.458794	join	-0.09954914
-4.882486	joined	-0.09149202
-4.458794	joining	-0.0840167
-4.0683	joint	-0.09896205
-4.882486	journalist	-0.08357822
-4.882486	journalists	-0.08789982
-4.882486	judge	-0.0892076
-4.882486	judged	-0.1002605
-4.458794	judgement	-0.1678219
-4.882486	judgements	-0.0986346
-4.458794	judges	-0.08256803
-4.0683	judicial	-0.09985823
-4.458794	judiciary	-0.1190713
-4.882486	junkies	-0.08868667
-4.458794	juris	-0.08053814
-4.299271	jurisdiction	-0.07148192
-2.916039	just	-0.1376496
-3.527366	justice	-0.1219343
-4.882486	justifiably	-0.1001686
-4.458794	justification	-0.08919857
-4.299271	justified	-0.1509723
-4.882486	justify	-0.1003378
-4.882486	keen	-0.09016214
-4.0683	keep	-0.0732488
-4.458794	kept	-0.07950476
-3.582243	key	-0.115967
-4.882486	keyword	-0.1003378
-4.458794	killed	-0.07310532
-4.882486	killings	-0.09027181
-3.718553	kind	-0.1132946
-4.882486	kinds	-0.09016214
-4.882486	kinsmen	-0.09027181
-4.882486	knew	-0.09944829
-3.434854	know	-0.2919582
-4.0683	knowledge	-0.2621767
-3.80705	known	-0.2478067
-3.80705	knows	-0.1770698
-4.0683	labour	-0.1194797
-4.882486	labour-intensive	-0.08357822
-3.718553	lack	-0.4819591
-4.458794	lacking	-0.07954371
-4.882486	lacks	-0.1002911
-4.882486	ladies	-0.08789982
-4.882486	lag	-0.09646244
-3.80705	laid	-0.2974721
-4.882486	lambs	-0.1002911
-4.882486	lament	-0.09149202
-4.882486	land	-0.08456346
-4.882486	landed	-0.09970896
-4.882486	landscape	-0.09852702
-4.882486	lapsing	-0.08868667
-3.718553	large	-0.09824026
-3.80705	largely	-0.08725326
-4.458794	larger	-0.09974845
